{"learner":{"attributes":{"scikit_learn":"{\"_estimator_type\": \"classifier\"}"},"feature_names":["price","seller_rating","purchases","wishlist_adds"],"feature_types":["float","float","int","int"],"gradient_booster":{"model":{"gbtree_model_param":{"num_parallel_tree":"1","num_trees":"500"},"iteration_indptr":[0,1,2,3,4,5,6,7,8,9,10,11,12,13,14,15,16,17,18,19,20,21,22,23,24,25,26,27,28,29,30,31,32,33,34,35,36,37,38,39,40,41,42,43,44,45,46,47,48,49,50,51,52,53,54,55,56,57,58,59,60,61,62,63,64,65,66,67,68,69,70,71,72,73,74,75,76,77,78,79,80,81,82,83,84,85,86,87,88,89,90,91,92,93,94,95,96,97,98,99,100,101,102,103,104,105,106,107,108,109,110,111,112,113,114,115,116,117,118,119,120,121,122,123,124,125,126,127,128,129,130,131,132,133,134,135,136,137,138,139,140,141,142,143,144,145,146,147,148,149,150,151,152,153,154,155,156,157,158,159,160,161,162,163,164,165,166,167,168,169,170,171,172,173,174,175,176,177,178,179,180,181,182,183,184,185,186,187,188,189,190,191,192,193,194,195,196,197,198,199,200,201,202,203,204,205,206,207,208,209,210,211,212,213,214,215,216,217,218,219,220,221,222,223,224,225,226,227,228,229,230,231,232,233,234,235,236,237,238,239,240,241,242,243,244,245,246,247,248,249,250,251,252,253,254,255,256,257,258,259,260,261,262,263,264,265,266,267,268,269,270,271,272,273,274,275,276,277,278,279,280,281,282,283,284,285,286,287,288,289,290,291,292,293,294,295,296,297,298,299,300,301,302,303,304,305,306,307,308,309,310,311,312,313,314,315,316,317,318,319,320,321,322,323,324,325,326,327,328,329,330,331,332,333,334,335,336,337,338,339,340,341,342,343,344,345,346,347,348,349,350,351,352,353,354,355,356,357,358,359,360,361,362,363,364,365,366,367,368,369,370,371,372,373,374,375,376,377,378,379,380,381,382,383,384,385,386,387,388,389,390,391,392,393,394,395,396,397,398,399,400,401,402,403,404,405,406,407,408,409,410,411,412,413,414,415,416,417,418,419,420,421,422,423,424,425,426,427,428,429,430,431,432,433,434,435,436,437,438,439,440,441,442,443,444,445,446,447,448,449,450,451,452,453,454,455,456,457,458,459,460,461,462,463,464,465,466,467,468,469,470,471,472,473,474,475,476,477,478,479,480,481,482,483,484,485,486,487,488,489,490,491,492,493,494,495,496,497,498,499,500],"tree_info":[0,0,0,0,0,0,0,0,0,0,0,0,0,0,0,0,0,0,0,0,0,0,0,0,0,0,0,0,0,0,0,0,0,0,0,0,0,0,0,0,0,0,0,0,0,0,0,0,0,0,0,0,0,0,0,0,0,0,0,0,0,0,0,0,0,0,0,0,0,0,0,0,0,0,0,0,0,0,0,0,0,0,0,0,0,0,0,0,0,0,0,0,0,0,0,0,0,0,0,0,0,0,0,0,0,0,0,0,0,0,0,0,0,0,0,0,0,0,0,0,0,0,0,0,0,0,0,0,0,0,0,0,0,0,0,0,0,0,0,0,0,0,0,0,0,0,0,0,0,0,0,0,0,0,0,0,0,0,0,0,0,0,0,0,0,0,0,0,0,0,0,0,0,0,0,0,0,0,0,0,0,0,0,0,0,0,0,0,0,0,0,0,0,0,0,0,0,0,0,0,0,0,0,0,0,0,0,0,0,0,0,0,0,0,0,0,0,0,0,0,0,0,0,0,0,0,0,0,0,0,0,0,0,0,0,0,0,0,0,0,0,0,0,0,0,0,0,0,0,0,0,0,0,0,0,0,0,0,0,0,0,0,0,0,0,0,0,0,0,0,0,0,0,0,0,0,0,0,0,0,0,0,0,0,0,0,0,0,0,0,0,0,0,0,0,0,0,0,0,0,0,0,0,0,0,0,0,0,0,0,0,0,0,0,0,0,0,0,0,0,0,0,0,0,0,0,0,0,0,0,0,0,0,0,0,0,0,0,0,0,0,0,0,0,0,0,0,0,0,0,0,0,0,0,0,0,0,0,0,0,0,0,0,0,0,0,0,0,0,0,0,0,0,0,0,0,0,0,0,0,0,0,0,0,0,0,0,0,0,0,0,0,0,0,0,0,0,0,0,0,0,0,0,0,0,0,0,0,0,0,0,0,0,0,0,0,0,0,0,0,0,0,0,0,0,0,0,0,0,0,0,0,0,0,0,0,0,0,0,0,0,0,0,0,0,0,0,0,0,0,0,0,0,0,0,0,0,0,0,0,0,0,0,0,0,0,0,0,0,0,0,0,0,0,0,0,0,0,0,0,0,0,0,0,0,0,0,0,0,0,0,0,0,0,0,0,0,0,0,0],"trees":[{"base_weights":[-0E0,1.9926662E-2,-1.4273362E0,-7.348301E-1,-1.9891491E-2,-2.734785E-3,-9.325994E-3],"categories":[],"categories_nodes":[],"categories_segments":[],"categories_sizes":[],"default_left":[0,0,0,0,0,0,0],"id":0,"left_children":[1,-1,3,5,-1,-1,-1],"loss_changes":[3.0196924E3,0E0,2.3711731E2,2.4548248E1,0E0,0E0,0E0],"parents":[2147483647,0,0,2,2,3,3],"right_children":[2,-1,4,6,-1,-1,-1],"split_conditions":[3.5E0,1.9926662E-2,4.1E0,3.7E0,-1.9891491E-2,-2.734785E-3,-9.325994E-3],"split_indices":[1,0,1,1,0,0,0],"split_type":[0,0,0,0,0,0,0],"sum_hessian":[1.0587001E3,4.416E2,6.171E2,2.7835E2,3.3875E2,8.535E1,1.93E2],"tree_param":{"num_deleted":"0","num_feature":"4","num_nodes":"7","size_leaf_vector":"1"}},{"base_weights":[-0E0,1.9729916E-2,-1.4132493E0,-6.4566314E-1,-1.9744035E-2,3.7427568E-3,-1.9499002E-2],"categories":[],"categories_nodes":[],"categories_segments":[],"categories_sizes":[],"default_left":[0,0,0,0,0,0,0],"id":1,"left_children":[1,-1,3,5,-1,-1,-1],"loss_changes":[2.9601255E3,0E0,2.6321252E2,3.528477E2,0E0,0E0,0E0],"parents":[2147483647,0,0,2,2,3,3],"right_children":[2,-1,4,6,-1,-1,-1],"split_conditions":[3.5E0,1.9729916E-2,2.0002E2,4.1E0,-1.9744035E-2,3.7427568E-3,-1.9499002E-2],"split_indices":[1,0,0,1,0,0,0],"split_type":[0,0,0,0,0,0,0],"sum_hessian":[1.0586183E3,4.4155865E2,6.1705963E2,2.6233557E2,3.5472406E2,1.4759758E2,1.14738E2],"tree_param":{"num_deleted":"0","num_feature":"4","num_nodes":"7","size_leaf_vector":"1"}},{"base_weights":[-0E0,1.9538922E-2,-1.3994824E0,-6.393565E-1,-1.9552417E-2,3.7056662E-3,-1.9312168E-2],"categories":[],"categories_nodes":[],"categories_segments":[],"categories_sizes":[],"default_left":[0,0,0,0,0,0,0],"id":2,"left_children":[1,-1,3,5,-1,-1,-1],"loss_changes":[2.902217E3,0E0,2.5808435E2,3.4603265E2,0E0,0E0,0E0],"parents":[2147483647,0,0,2,2,3,3],"right_children":[2,-1,4,6,-1,-1,-1],"split_conditions":[3.5E0,1.9538922E-2,2.0002E2,4.1E0,-1.9552417E-2,3.7056662E-3,-1.9312168E-2],"split_indices":[1,0,0,1,0,0,0],"split_type":[0,0,0,0,0,0,0],"sum_hessian":[1.0583682E3,4.414314E2,6.169368E2,2.623033E2,3.546335E2,1.475991E2,1.147042E2],"tree_param":{"num_deleted":"0","num_feature":"4","num_nodes":"7","size_leaf_vector":"1"}},{"base_weights":[-0E0,1.935344E-2,-1.3860513E0,-7.133277E-1,-1.9321099E-2,-2.61337E-3,-9.071096E-3],"categories":[],"categories_nodes":[],"categories_segments":[],"categories_sizes":[],"default_left":[0,0,0,0,0,0,0],"id":3,"left_children":[1,-1,3,5,-1,-1,-1],"loss_changes":[2.8459312E3,0E0,2.2371252E2,2.3565033E1,0E0,0E0,0E0],"parents":[2147483647,0,0,2,2,3,3],"right_children":[2,-1,4,6,-1,-1,-1],"split_conditions":[3.5E0,1.935344E-2,4.1E0,3.7E0,-1.9321099E-2,-2.61337E-3,-9.071096E-3],"split_indices":[1,0,1,1,0,0,0],"split_type":[0,0,0,0,0,0,0],"sum_hessian":[1.0579456E3,4.4122076E2,6.1672473E2,2.782753E2,3.3844946E2,8.5335594E1,1.929397E2],"tree_param":{"num_deleted":"0","num_feature":"4","num_nodes":"7","size_leaf_vector":"1"}},{"base_weights":[-0E0,9.707476E-1,-1.9226776E-2,1.9037882E-2,7.7444804E-1,8.197567E-3,5.356195E-3],"categories":[],"categories_nodes":[],"categories_segments":[],"categories_sizes":[],"default_left":[0,0,0,0,0,0,0],"id":4,"left_children":[1,3,-1,-1,5,-1,-1],"loss_changes":[1.979261E3,1.2550049E2,0E0,0E0,4.9950256E0,0E0,0E0],"parents":[2147483647,0,0,1,1,4,4],"right_children":[2,4,-1,-1,6,-1,-1],"split_conditions":[2.0002E2,5.031E1,-1.9226776E-2,1.9037882E-2,1.7237E2,8.197567E-3,5.356195E-3],"split_indices":[0,0,0,0,0,0,0],"split_type":[0,0,0,0,0,0,0],"sum_hessian":[1.057399E3,7.030992E2,3.5429984E2,1.1950058E2,5.835986E2,4.857111E2,9.7887505E1],"tree_param":{"num_deleted":"0","num_feature":"4","num_nodes":"7","size_leaf_vector":"1"}},{"base_weights":[-0E0,1.9079203E-2,-1.3660096E0,-6.296792E-1,-1.9049937E-2,3.6432063E-3,-1.9022992E-2],"categories":[],"categories_nodes":[],"categories_segments":[],"categories_sizes":[],"default_left":[0,0,0,0,0,0,0],"id":5,"left_children":[1,-1,3,5,-1,-1,-1],"loss_changes":[2.762497E3,0E0,2.4209265E2,3.353895E2,0E0,0E0,0E0],"parents":[2147483647,0,0,2,2,3,3],"right_children":[2,-1,4,6,-1,-1,-1],"split_conditions":[3.5E0,1.9079203E-2,2.0002E2,4.1E0,-1.9049937E-2,3.6432063E-3,-1.9022992E-2],"split_indices":[1,0,0,1,0,0,0],"split_type":[0,0,0,0,0,0,0],"sum_hessian":[1.0569707E3,4.4073895E2,6.162318E2,2.622037E2,3.540281E2,1.475978E2,1.14605896E2],"tree_param":{"num_deleted":"0","num_feature":"4","num_nodes":"7","size_leaf_vector":"1"}},{"base_weights":[-0E0,9.5241255E-1,-1.8878032E-2,1.8718075E-2,7.591099E-1,8.037367E-3,5.238726E-3],"categories":[],"categories_nodes":[],"categories_segments":[],"categories_sizes":[],"default_left":[0,0,0,0,0,0,0],"id":6,"left_children":[1,3,-1,-1,5,-1,-1],"loss_changes":[1.9043828E3,1.2165912E2,0E0,0E0,4.841919E0,0E0,0E0],"parents":[2147483647,0,0,1,1,4,4],"right_children":[2,4,-1,-1,6,-1,-1],"split_conditions":[2.0002E2,5.031E1,-1.8878032E-2,1.8718075E-2,1.7237E2,8.037367E-3,5.238726E-3],"split_indices":[0,0,0,0,0,0,0],"split_type":[0,0,0,0,0,0,0],"sum_hessian":[1.056138E3,7.024433E2,3.536947E2,1.1931936E2,5.831239E2,4.8530606E2,9.781786E1],"tree_param":{"num_deleted":"0","num_feature":"4","num_nodes":"7","size_leaf_vector":"1"}},{"base_weights":[-0E0,9.432786E-1,-1.871086E-2,1.8551582E-2,7.517025E-1,7.958874E-3,5.1876423E-3],"categories":[],"categories_nodes":[],"categories_segments":[],"categories_sizes":[],"default_left":[0,0,0,0,0,0,0],"id":7,"left_children":[1,3,-1,-1,5,-1,-1],"loss_changes":[1.8682949E3,1.19539856E2,0E0,0E0,4.73938E0,0E0,0E0],"parents":[2147483647,0,0,1,1,4,4],"right_children":[2,4,-1,-1,6,-1,-1],"split_conditions":[2.0002E2,5.031E1,-1.871086E-2,1.8551582E-2,1.7237E2,7.958874E-3,5.1876423E-3],"split_indices":[0,0,0,0,0,0,0],"split_type":[0,0,0,0,0,0,0],"sum_hessian":[1.0555168E3,7.022153E2,3.5330157E2,1.1920034E2,5.830149E2,4.852068E2,9.780813E1],"tree_param":{"num_deleted":"0","num_feature":"4","num_nodes":"7","size_leaf_vector":"1"}},{"base_weights":[-0E0,9.34279E-1,-1.8548233E-2,1.8389551E-2,7.4438715E-1,7.881379E-3,5.137118E-3],"categories":[],"categories_nodes":[],"categories_segments":[],"categories_sizes":[],"default_left":[0,0,0,0,0,0,0],"id":8,"left_children":[1,3,-1,-1,5,-1,-1],"loss_changes":[1.8331249E3,1.17501465E2,0E0,0E0,4.639618E0,0E0,0E0],"parents":[2147483647,0,0,1,1,4,4],"right_children":[2,4,-1,-1,6,-1,-1],"split_conditions":[2.0002E2,5.031E1,-1.8548233E-2,1.8389551E-2,1.7237E2,7.881379E-3,5.137118E-3],"split_indices":[0,0,0,0,0,0,0],"split_type":[0,0,0,0,0,0,0],"sum_hessian":[1.0548029E3,7.0195233E2,3.5285056E2,1.19062004E2,5.828903E2,4.850931E2,9.779718E1],"tree_param":{"num_deleted":"0","num_feature":"4","num_nodes":"7","size_leaf_vector":"1"}},{"base_weights":[-0E0,9.254106E-1,-1.8389983E-2,1.8231813E-2,7.371624E-1,7.804865E-3,5.0871475E-3],"categories":[],"categories_nodes":[],"categories_segments":[],"categories_sizes":[],"default_left":[0,0,0,0,0,0,0],"id":9,"left_children":[1,3,-1,-1,5,-1,-1],"loss_changes":[1.7988405E3,1.15539795E2,0E0,0E0,4.542328E0,0E0,0E0],"parents":[2147483647,0,0,1,1,4,4],"right_children":[2,4,-1,-1,6,-1,-1],"split_conditions":[2.0002E2,5.031E1,-1.8389983E-2,1.8231813E-2,1.7237E2,7.804865E-3,5.0871475E-3],"split_indices":[0,0,0,0,0,0,0],"split_type":[0,0,0,0,0,0,0],"sum_hessian":[1.053999E3,7.016555E2,3.523435E2,1.1890495E2,5.827506E2,4.8496555E2,9.778505E1],"tree_param":{"num_deleted":"0","num_feature":"4","num_nodes":"7","size_leaf_vector":"1"}},{"base_weights":[-0E0,1.8560423E-2,-1.3289117E0,1.7281946E-2,-1.4464222E0,-8.993831E-3,-1.8551273E-2],"categories":[],"categories_nodes":[],"categories_segments":[],"categories_sizes":[],"default_left":[0,0,0,0,0,0,0],"id":10,"left_children":[1,-1,3,-1,5,-1,-1],"loss_changes":[2.6049165E3,0E0,2.2470264E2,0E0,1.2884436E2,0E0,0E0],"parents":[2147483647,0,0,2,2,4,4],"right_children":[2,-1,4,-1,6,-1,-1],"split_conditions":[3.5E0,1.8560423E-2,5.031E1,1.7281946E-2,4.1E0,-8.993831E-3,-1.8551273E-2],"split_indices":[1,0,0,0,1,0,0],"split_type":[0,0,0,0,0,0,0],"sum_hessian":[1.0531082E3,4.3916278E2,6.1394543E2,2.1807047E1,5.9213837E2,2.5579247E2,3.3634592E2],"tree_param":{"num_deleted":"0","num_feature":"4","num_nodes":"7","size_leaf_vector":"1"}},{"base_weights":[-0E0,1.8402103E-2,-1.316913E0,1.7133681E-2,-1.4334196E0,-8.907324E-3,-1.8393183E-2],"categories":[],"categories_nodes":[],"categories_segments":[],"categories_sizes":[],"default_left":[0,0,0,0,0,0,0],"id":11,"left_children":[1,-1,3,-1,5,-1,-1],"loss_changes":[2.5564211E3,0E0,2.2061816E2,0E0,1.26816284E2,0E0,0E0],"parents":[2147483647,0,0,2,2,4,4],"right_children":[2,-1,4,-1,6,-1,-1],"split_conditions":[3.5E0,1.8402103E-2,5.031E1,1.7133681E-2,4.1E0,-8.907324E-3,-1.8393183E-2],"split_indices":[1,0,0,0,1,0,0],"split_type":[0,0,0,0,0,0,0],"sum_hessian":[1.0518853E3,4.3852768E2,6.1335754E2,2.1788864E1,5.9156866E2,2.5570891E2,3.3585977E2],"tree_param":{"num_deleted":"0","num_feature":"4","num_nodes":"7","size_leaf_vector":"1"}},{"base_weights":[-0E0,1.8247994E-2,-1.3051603E0,1.6988927E-2,-1.4206821E0,-8.821969E-3,-1.8239282E-2],"categories":[],"categories_nodes":[],"categories_segments":[],"categories_sizes":[],"default_left":[0,0,0,0,0,0,0],"id":12,"left_children":[1,-1,3,-1,5,-1,-1],"loss_changes":[2.50917E3,0E0,2.1663147E2,0E0,1.2487659E2,0E0,0E0],"parents":[2147483647,0,0,2,2,4,4],"right_children":[2,-1,4,-1,6,-1,-1],"split_conditions":[3.5E0,1.8247994E-2,5.031E1,1.6988927E-2,4.1E0,-8.821969E-3,-1.8239282E-2],"split_indices":[1,0,0,0,1,0,0],"split_type":[0,0,0,0,0,0,0],"sum_hessian":[1.0505308E3,4.3782498E2,6.127058E2,2.1767653E1,5.909382E2,2.5561609E2,3.3532208E2],"tree_param":{"num_deleted":"0","num_feature":"4","num_nodes":"7","size_leaf_vector":"1"}},{"base_weights":[-0E0,1.8097939E-2,-1.2936453E0,-6.621036E-1,-1.8091192E-2,-2.280915E-3,-8.485395E-3],"categories":[],"categories_nodes":[],"categories_segments":[],"categories_sizes":[],"default_left":[0,0,0,0,0,0,0],"id":13,"left_children":[1,-1,3,5,-1,-1,-1],"loss_changes":[2.4631194E3,0E0,1.9668604E2,2.1706963E1,0E0,0E0,0E0],"parents":[2147483647,0,0,2,2,3,3],"right_children":[2,-1,4,6,-1,-1,-1],"split_conditions":[3.5E0,1.8097939E-2,4.1E0,3.7E0,-1.8091192E-2,-2.280915E-3,-8.485395E-3],"split_indices":[1,0,1,1,0,0,0],"split_type":[0,0,0,0,0,0,0],"sum_hessian":[1.0490491E3,4.3705682E2,6.1199225E2,2.7700793E2,3.3498428E2,8.504505E1,1.9196289E2],"tree_param":{"num_deleted":"0","num_feature":"4","num_nodes":"7","size_leaf_vector":"1"}},{"base_weights":[-0E0,8.916857E-1,-1.7766614E-2,1.7532876E-2,7.116726E-1,7.5350297E-3,4.91001E-3],"categories":[],"categories_nodes":[],"categories_segments":[],"categories_sizes":[],"default_left":[0,0,0,0,0,0,0],"id":14,"left_children":[1,3,-1,-1,5,-1,-1],"loss_changes":[1.6642007E3,1.0538263E2,0E0,0E0,4.191284E0,0E0,0E0],"parents":[2147483647,0,0,1,1,4,4],"right_children":[2,4,-1,-1,6,-1,-1],"split_conditions":[2.0002E2,5.031E1,-1.7766614E-2,1.7532876E-2,1.7237E2,7.5350297E-3,4.91001E-3],"split_indices":[0,0,0,0,0,0,0],"split_type":[0,0,0,0,0,0,0],"sum_hessian":[1.0475009E3,6.979649E2,3.495359E2,1.1787743E2,5.8008746E2,4.826996E2,9.738788E1],"tree_param":{"num_deleted":"0","num_feature":"4","num_nodes":"7","size_leaf_vector":"1"}},{"base_weights":[-0E0,8.8343483E-1,-1.7628709E-2,1.7397024E-2,7.0484895E-1,7.4628526E-3,4.862514E-3],"categories":[],"categories_nodes":[],"categories_segments":[],"categories_sizes":[],"default_left":[0,0,0,0,0,0,0],"id":15,"left_children":[1,3,-1,-1,5,-1,-1],"loss_changes":[1.6340593E3,1.03828E2,0E0,0E0,4.105438E0,0E0,0E0],"parents":[2147483647,0,0,1,1,4,4],"right_children":[2,4,-1,-1,6,-1,-1],"split_conditions":[2.0002E2,5.031E1,-1.7628709E-2,1.7397024E-2,1.7237E2,7.4628526E-3,4.862514E-3],"split_indices":[0,0,0,0,0,0,0],"split_type":[0,0,0,0,0,0,0],"sum_hessian":[1.0462661E3,6.9750305E2,3.487631E2,1.17622955E2,5.798801E2,4.8250967E2,9.7370445E1],"tree_param":{"num_deleted":"0","num_feature":"4","num_nodes":"7","size_leaf_vector":"1"}},{"base_weights":[-0E0,1.7805113E-2,-1.2721124E0,1.6617786E-2,-1.3851647E0,-8.582932E-3,-1.7812137E-2],"categories":[],"categories_nodes":[],"categories_segments":[],"categories_sizes":[],"default_left":[0,0,0,0,0,0,0],"id":16,"left_children":[1,-1,3,-1,5,-1,-1],"loss_changes":[2.3736768E3,0E0,2.0604572E2,0E0,1.1940112E2,0E0,0E0],"parents":[2147483647,0,0,2,2,4,4],"right_children":[2,-1,4,-1,6,-1,-1],"split_conditions":[3.5E0,1.7805113E-2,5.031E1,1.6617786E-2,4.1E0,-8.582932E-3,-1.7812137E-2],"split_indices":[1,0,0,0,1,0,0],"split_type":[0,0,0,0,0,0,0],"sum_hessian":[1.0449585E3,4.3523892E2,6.097196E2,2.169622E1,5.880234E2,2.5491638E2,3.3310696E2],"tree_param":{"num_deleted":"0","num_feature":"4","num_nodes":"7","size_leaf_vector":"1"}},{"base_weights":[-0E0,1.766647E-2,-1.261256E0,-6.4344037E-1,-1.7675834E-2,-2.1731996E-3,-8.266923E-3],"categories":[],"categories_nodes":[],"categories_segments":[],"categories_sizes":[],"default_left":[0,0,0,0,0,0,0],"id":17,"left_children":[1,-1,3,5,-1,-1,-1],"loss_changes":[2.3309988E3,0E0,1.8801093E2,2.0893738E1,0E0,0E0,0E0],"parents":[2147483647,0,0,2,2,3,3],"right_children":[2,-1,4,6,-1,-1,-1],"split_conditions":[3.5E0,1.766647E-2,4.1E0,3.7E0,-1.7675834E-2,-2.1731996E-3,-8.266923E-3],"split_indices":[1,0,1,1,0,0,0],"split_type":[0,0,0,0,0,0,0],"sum_hessian":[1.0431173E3,4.342845E2,6.088328E2,2.7620456E2,3.3262827E2,8.4867455E1,1.913371E2],"tree_param":{"num_deleted":"0","num_feature":"4","num_nodes":"7","size_leaf_vector":"1"}},{"base_weights":[-0E0,1.7531315E-2,-1.2505238E0,1.6537286E-2,-1.3627006E0,-8.441932E-3,-1.7538264E-2],"categories":[],"categories_nodes":[],"categories_segments":[],"categories_sizes":[],"default_left":[0,0,0,0,0,0,0],"id":18,"left_children":[1,-1,3,-1,5,-1,-1],"loss_changes":[2.2893447E3,0E0,2.0179144E2,0E0,1.1568396E2,0E0,0E0],"parents":[2147483647,0,0,2,2,4,4],"right_children":[2,-1,4,-1,6,-1,-1],"split_conditions":[3.5E0,1.7531315E-2,5.031E1,1.6537286E-2,4.1E0,-8.441932E-3,-1.7538264E-2],"split_indices":[1,0,0,0,1,0,0],"split_type":[0,0,0,0,0,0,0],"sum_hessian":[1.0412354E3,4.3327286E2,6.079625E2,2.167694E1,5.862856E2,2.5467894E2,3.3160663E2],"tree_param":{"num_deleted":"0","num_feature":"4","num_nodes":"7","size_leaf_vector":"1"}},{"base_weights":[-0E0,8.586779E-1,-1.7186444E-2,1.6914245E-2,6.8574464E-1,7.2610187E-3,4.727977E-3],"categories":[],"categories_nodes":[],"categories_segments":[],"categories_sizes":[],"default_left":[0,0,0,0,0,0,0],"id":19,"left_children":[1,3,-1,-1,5,-1,-1],"loss_changes":[1.5379419E3,9.7157104E1,0E0,0E0,3.8572388E0,0E0,0E0],"parents":[2147483647,0,0,1,1,4,4],"right_children":[2,4,-1,-1,6,-1,-1],"split_conditions":[2.0002E2,5.031E1,-1.7186444E-2,1.6914245E-2,1.7237E2,7.2610187E-3,4.727977E-3],"split_indices":[0,0,0,0,0,0,0],"split_type":[0,0,0,0,0,0,0],"sum_hessian":[1.0391807E3,6.934919E2,3.456888E2,1.1648846E2,5.770034E2,4.8006067E2,9.6942726E1],"tree_param":{"num_deleted":"0","num_feature":"4","num_nodes":"7","size_leaf_vector":"1"}},{"base_weights":[-0E0,1.73334E-2,-1.2354804E0,1.6274158E-2,-1.3460717E0,-8.319284E-3,-1.7348994E-2],"categories":[],"categories_nodes":[],"categories_segments":[],"categories_sizes":[],"default_left":[0,0,0,0,0,0,0],"id":20,"left_children":[1,-1,3,-1,5,-1,-1],"loss_changes":[2.2285886E3,0E0,1.954997E2,0E0,1.136875E2,0E0,0E0],"parents":[2147483647,0,0,2,2,4,4],"right_children":[2,-1,4,-1,6,-1,-1],"split_conditions":[3.5E0,1.73334E-2,5.031E1,1.6274158E-2,4.1E0,-8.319284E-3,-1.7348994E-2],"split_indices":[1,0,0,0,1,0,0],"split_type":[0,0,0,0,0,0,0],"sum_hessian":[1.0376396E3,4.3159866E2,6.0604095E2,2.160681E1,5.8443414E2,2.5424438E2,3.3018976E2],"tree_param":{"num_deleted":"0","num_feature":"4","num_nodes":"7","size_leaf_vector":"1"}},{"base_weights":[-0E0,8.4562016E-1,-1.6965559E-2,1.6672984E-2,6.755485E-1,7.153065E-3,4.657496E-3],"categories":[],"categories_nodes":[],"categories_segments":[],"categories_sizes":[],"default_left":[0,0,0,0,0,0,0],"id":21,"left_children":[1,3,-1,-1,5,-1,-1],"loss_changes":[1.4896733E3,9.398938E1,0E0,0E0,3.7245178E0,0E0,0E0],"parents":[2147483647,0,0,1,1,4,4],"right_children":[2,4,-1,-1,6,-1,-1],"split_conditions":[2.0002E2,5.031E1,-1.6965559E-2,1.6672984E-2,1.7237E2,7.153065E-3,4.657496E-3],"split_indices":[0,0,0,0,0,0,0],"split_type":[0,0,0,0,0,0,0],"sum_hessian":[1.0354274E3,6.9155396E2,3.438734E2,1.1582345E2,5.7573047E2,4.7896634E2,9.6764145E1],"tree_param":{"num_deleted":"0","num_feature":"4","num_nodes":"7","size_leaf_vector":"1"}},{"base_weights":[-0E0,1.7143194E-2,-1.2209592E0,1.602245E-2,-1.3300048E0,-8.1995735E-3,-1.7168026E-2],"categories":[],"categories_nodes":[],"categories_segments":[],"categories_sizes":[],"default_left":[0,0,0,0,0,0,0],"id":22,"left_children":[1,-1,3,-1,5,-1,-1],"loss_changes":[2.1701523E3,0E0,1.8945935E2,0E0,1.1182361E2,0E0,0E0],"parents":[2147483647,0,0,2,2,4,4],"right_children":[2,-1,4,-1,6,-1,-1],"split_conditions":[3.5E0,1.7143194E-2,5.031E1,1.602245E-2,4.1E0,-8.1995735E-3,-1.7168026E-2],"split_indices":[1,0,0,0,1,0,0],"split_type":[0,0,0,0,0,0,0],"sum_hessian":[1.0337734E3,4.2980298E2,6.0397046E2,2.1526316E1,5.8244415E2,2.5377649E2,3.2866763E2],"tree_param":{"num_deleted":"0","num_feature":"4","num_nodes":"7","size_leaf_vector":"1"}},{"base_weights":[-0E0,1.7020885E-2,-1.2110621E0,1.590264E-2,-1.3192661E0,-8.123276E-3,-1.7045451E-2],"categories":[],"categories_nodes":[],"categories_segments":[],"categories_sizes":[],"default_left":[0,0,0,0,0,0,0],"id":23,"left_children":[1,-1,3,-1,5,-1,-1],"loss_changes":[2.132343E3,0E0,1.8619354E2,0E0,1.10502625E2,0E0,0E0],"parents":[2147483647,0,0,2,2,4,4],"right_children":[2,-1,4,-1,6,-1,-1],"split_conditions":[3.5E0,1.7020885E-2,5.031E1,1.590264E-2,4.1E0,-8.123276E-3,-1.7045451E-2],"split_indices":[1,0,0,0,1,0,0],"split_type":[0,0,0,0,0,0,0],"sum_hessian":[1.0314122E3,4.285795E2,6.028327E2,2.1483124E1,5.8134955E2,2.5361336E2,3.277362E2],"tree_param":{"num_deleted":"0","num_feature":"4","num_nodes":"7","size_leaf_vector":"1"}},{"base_weights":[-0E0,1.690149E-2,-1.2013407E0,1.578537E-2,-1.3087167E0,-8.047902E-3,-1.6925788E-2],"categories":[],"categories_nodes":[],"categories_segments":[],"categories_sizes":[],"default_left":[0,0,0,0,0,0,0],"id":24,"left_children":[1,-1,3,-1,5,-1,-1],"loss_changes":[2.0954111E3,0E0,1.8299927E2,0E0,1.092334E2,0E0,0E0],"parents":[2147483647,0,0,2,2,4,4],"right_children":[2,-1,4,-1,6,-1,-1],"split_conditions":[3.5E0,1.690149E-2,5.031E1,1.578537E-2,4.1E0,-8.047902E-3,-1.6925788E-2],"split_indices":[1,0,0,0,1,0,0],"split_type":[0,0,0,0,0,0,0],"sum_hessian":[1.0289574E3,4.2730792E2,6.0164954E2,2.1437666E1,5.8021185E2,2.5344363E2,3.2676822E2],"tree_param":{"num_deleted":"0","num_feature":"4","num_nodes":"7","size_leaf_vector":"1"}},{"base_weights":[-0E0,8.231775E-1,-1.6574372E-2,1.6220389E-2,6.588118E-1,6.9756876E-3,4.5424956E-3],"categories":[],"categories_nodes":[],"categories_segments":[],"categories_sizes":[],"default_left":[0,0,0,0,0,0,0],"id":25,"left_children":[1,3,-1,-1,5,-1,-1],"loss_changes":[1.4043495E3,8.7578705E1,0E0,0E0,3.4959717E0,0E0,0E0],"parents":[2147483647,0,0,1,1,4,4],"right_children":[2,4,-1,-1,6,-1,-1],"split_conditions":[2.0002E2,5.031E1,-1.6574372E-2,1.6220389E-2,1.7237E2,6.9756876E-3,4.5424956E-3],"split_indices":[0,0,0,0,0,0,0],"split_type":[0,0,0,0,0,0,0],"sum_hessian":[1.0264125E3,6.8637787E2,3.4003458E2,1.143349E2,5.7204297E2,4.7583124E2,9.621172E1],"tree_param":{"num_deleted":"0","num_feature":"4","num_nodes":"7","size_leaf_vector":"1"}},{"base_weights":[-0E0,8.158513E-1,-1.646525E-2,1.6115183E-2,6.526085E-1,6.9101905E-3,4.498915E-3],"categories":[],"categories_nodes":[],"categories_segments":[],"categories_sizes":[],"default_left":[0,0,0,0,0,0,0],"id":26,"left_children":[1,3,-1,-1,5,-1,-1],"loss_changes":[1.380186E3,8.654645E1,0E0,0E0,3.4267426E0,0E0,0E0],"parents":[2147483647,0,0,1,1,4,4],"right_children":[2,4,-1,-1,6,-1,-1],"split_conditions":[2.0002E2,5.031E1,-1.646525E-2,1.6115183E-2,1.7237E2,6.9101905E-3,4.498915E-3],"split_indices":[0,0,0,0,0,0,0],"split_type":[0,0,0,0,0,0,0],"sum_hessian":[1.0245636E3,6.8568274E2,3.388809E2,1.13942245E2,5.717405E2,4.7555356E2,9.618693E1],"tree_param":{"num_deleted":"0","num_feature":"4","num_nodes":"7","size_leaf_vector":"1"}},{"base_weights":[-0E0,1.6670272E-2,-1.1839466E0,1.5440202E-2,-1.2892078E0,-7.8944685E-3,-1.671465E-2],"categories":[],"categories_nodes":[],"categories_segments":[],"categories_sizes":[],"default_left":[0,0,0,0,0,0,0],"id":27,"left_children":[1,-1,3,-1,5,-1,-1],"loss_changes":[2.0244254E3,0E0,1.7504846E2,0E0,1.0728021E2,0E0,0E0],"parents":[2147483647,0,0,2,2,4,4],"right_children":[2,-1,4,-1,6,-1,-1],"split_conditions":[3.5E0,1.6670272E-2,5.031E1,1.5440202E-2,4.1E0,-7.8944685E-3,-1.671465E-2],"split_indices":[1,0,0,0,1,0,0],"split_type":[0,0,0,0,0,0,0],"sum_hessian":[1.02266364E3,4.2451E2,5.981536E2,2.1284637E1,5.7686896E2,2.5256828E2,3.243007E2],"tree_param":{"num_deleted":"0","num_feature":"4","num_nodes":"7","size_leaf_vector":"1"}},{"base_weights":[-0E0,8.0401295E-1,-1.6275182E-2,1.5909165E-2,6.432641E-1,6.8113618E-3,4.433913E-3],"categories":[],"categories_nodes":[],"categories_segments":[],"categories_sizes":[],"default_left":[0,0,0,0,0,0,0],"id":28,"left_children":[1,3,-1,-1,5,-1,-1],"loss_changes":[1.3383868E3,8.396945E1,0E0,0E0,3.312088E0,0E0,0E0],"parents":[2147483647,0,0,1,1,4,4],"right_children":[2,4,-1,-1,6,-1,-1],"split_conditions":[2.0002E2,5.031E1,-1.6275182E-2,1.5909165E-2,1.7237E2,6.8113618E-3,4.433913E-3],"split_indices":[0,0,0,0,0,0,0],"split_type":[0,0,0,0,0,0,0],"sum_hessian":[1.0199456E3,6.832893E2,3.3665628E2,1.1311398E2,5.7017535E2,4.7420844E2,9.596689E1],"tree_param":{"num_deleted":"0","num_feature":"4","num_nodes":"7","size_leaf_vector":"1"}},{"base_weights":[-0E0,7.96923E-1,-1.6172823E-2,1.58107E-2,6.372338E-1,6.7477175E-3,4.3914584E-3],"categories":[],"categories_nodes":[],"categories_segments":[],"categories_sizes":[],"default_left":[0,0,0,0,0,0,0],"id":29,"left_children":[1,3,-1,-1,5,-1,-1],"loss_changes":[1.3156609E3,8.303522E1,0E0,0E0,3.246994E0,0E0,0E0],"parents":[2147483647,0,0,1,1,4,4],"right_children":[2,4,-1,-1,6,-1,-1],"split_conditions":[2.0002E2,5.031E1,-1.6172823E-2,1.58107E-2,1.7237E2,6.7477175E-3,4.3914584E-3],"split_indices":[0,0,0,0,0,0,0],"split_type":[0,0,0,0,0,0,0],"sum_hessian":[1.0179569E3,6.8254205E2,3.3541486E2,1.12691696E2,5.6985034E2,4.7391E2,9.594036E1],"tree_param":{"num_deleted":"0","num_feature":"4","num_nodes":"7","size_leaf_vector":"1"}},{"base_weights":[-0E0,7.8991646E-1,-1.6072728E-2,1.5714327E-2,6.312691E-1,6.6847727E-3,4.349437E-3],"categories":[],"categories_nodes":[],"categories_segments":[],"categories_sizes":[],"default_left":[0,0,0,0,0,0,0],"id":30,"left_children":[1,3,-1,-1,5,-1,-1],"loss_changes":[1.2934224E3,8.21272E1,0E0,0E0,3.1833801E0,0E0,0E0],"parents":[2147483647,0,0,1,1,4,4],"right_children":[2,4,-1,-1,6,-1,-1],"split_conditions":[2.0002E2,5.031E1,-1.6072728E-2,1.5714327E-2,1.7237E2,6.6847727E-3,4.349437E-3],"split_indices":[0,0,0,0,0,0,0],"split_type":[0,0,0,0,0,0,0],"sum_hessian":[1.0159223E3,6.8177795E2,3.3414438E2,1.12260345E2,5.695176E2,4.7360437E2,9.591321E1],"tree_param":{"num_deleted":"0","num_feature":"4","num_nodes":"7","size_leaf_vector":"1"}},{"base_weights":[-0E0,7.8299165E-1,-1.5974823E-2,1.561998E-2,6.2536883E-1,6.6225156E-3,4.307846E-3],"categories":[],"categories_nodes":[],"categories_segments":[],"categories_sizes":[],"default_left":[0,0,0,0,0,0,0],"id":31,"left_children":[1,3,-1,-1,5,-1,-1],"loss_changes":[1.271657E3,8.1244385E1,0E0,0E0,3.12117E0,0E0,0E0],"parents":[2147483647,0,0,1,1,4,4],"right_children":[2,4,-1,-1,6,-1,-1],"split_conditions":[2.0002E2,5.031E1,-1.5974823E-2,1.561998E-2,1.7237E2,6.6225156E-3,4.307846E-3],"split_indices":[0,0,0,0,0,0,0],"split_type":[0,0,0,0,0,0,0],"sum_hessian":[1.01384344E3,6.809975E2,3.3284598E2,1.1182028E2,5.691772E2,4.7329175E2,9.588546E1],"tree_param":{"num_deleted":"0","num_feature":"4","num_nodes":"7","size_leaf_vector":"1"}},{"base_weights":[-0E0,1.6347611E-2,-1.1607637E0,-5.8250195E-1,-1.6444981E-2,3.0825357E-3,-1.6249651E-2],"categories":[],"categories_nodes":[],"categories_segments":[],"categories_sizes":[],"default_left":[0,0,0,0,0,0,0],"id":32,"left_children":[1,-1,3,5,-1,-1,-1],"loss_changes":[1.9256477E3,0E0,1.634054E2,2.5494043E2,0E0,0E0,0E0],"parents":[2147483647,0,0,2,2,3,3],"right_children":[2,-1,4,6,-1,-1,-1],"split_conditions":[3.5E0,1.6347611E-2,4.1E0,2.0002E2,-1.6444981E-2,3.0825357E-3,-1.6249651E-2],"split_indices":[1,0,1,0,0,0,0],"split_type":[0,0,0,0,0,0,0],"sum_hessian":[1.0117222E3,4.1994064E2,5.917816E2,2.7153064E2,3.2025095E2,1.4673042E2,1.2480022E2],"tree_param":{"num_deleted":"0","num_feature":"4","num_nodes":"7","size_leaf_vector":"1"}},{"base_weights":[-0E0,1.6243853E-2,-1.1523727E0,1.4888355E-2,-1.2542316E0,-7.6235007E-3,-1.633496E-2],"categories":[],"categories_nodes":[],"categories_segments":[],"categories_sizes":[],"default_left":[0,0,0,0,0,0,0],"id":33,"left_children":[1,-1,3,-1,5,-1,-1],"loss_changes":[1.8937196E3,0E0,1.6186243E2,0E0,1.03400085E2,0E0,0E0],"parents":[2147483647,0,0,2,2,4,4],"right_children":[2,-1,4,-1,6,-1,-1],"split_conditions":[3.5E0,1.6243853E-2,5.031E1,1.4888355E-2,4.1E0,-7.6235007E-3,-1.633496E-2],"split_indices":[1,0,0,0,1,0,0],"split_type":[0,0,0,0,0,0,0],"sum_hessian":[1.00858936E3,4.1841406E2,5.9017535E2,2.0974375E1,5.692009E2,2.5034851E2,3.1885245E2],"tree_param":{"num_deleted":"0","num_feature":"4","num_nodes":"7","size_leaf_vector":"1"}},{"base_weights":[-0E0,7.6589274E-1,-1.5708722E-2,1.5358023E-2,6.111286E-1,6.4740833E-3,4.1980795E-3],"categories":[],"categories_nodes":[],"categories_segments":[],"categories_sizes":[],"default_left":[0,0,0,0,0,0,0],"id":34,"left_children":[1,3,-1,-1,5,-1,-1],"loss_changes":[1.2132043E3,7.832031E1,0E0,0E0,2.9988708E0,0E0,0E0],"parents":[2147483647,0,0,1,1,4,4],"right_children":[2,4,-1,-1,6,-1,-1],"split_conditions":[2.0002E2,5.031E1,-1.5708722E-2,1.5358023E-2,1.7237E2,6.4740833E-3,4.1980795E-3],"split_indices":[0,0,0,0,0,0,0],"split_type":[0,0,0,0,0,0,0],"sum_hessian":[1.00557117E3,6.7662506E2,3.2894608E2,1.1046679E2,5.6615826E2,4.707093E2,9.544898E1],"tree_param":{"num_deleted":"0","num_feature":"4","num_nodes":"7","size_leaf_vector":"1"}},{"base_weights":[-0E0,1.6094284E-2,-1.1406299E0,-5.702865E-1,-1.620324E-2,3.0263343E-3,-1.5998943E-2],"categories":[],"categories_nodes":[],"categories_segments":[],"categories_sizes":[],"default_left":[0,0,0,0,0,0,0],"id":35,"left_children":[1,-1,3,5,-1,-1,-1],"loss_changes":[1.8475393E3,0E0,1.5861823E2,2.4565176E2,0E0,0E0,0E0],"parents":[2147483647,0,0,2,2,3,3],"right_children":[2,-1,4,6,-1,-1,-1],"split_conditions":[3.5E0,1.6094284E-2,4.1E0,2.0002E2,-1.620324E-2,3.0263343E-3,-1.5998943E-2],"split_indices":[1,0,1,0,0,0,0],"split_type":[0,0,0,0,0,0,0],"sum_hessian":[1.0033391E3,4.1600366E2,5.8733545E2,2.7029163E2,3.1704382E2,1.4658647E2,1.2370515E2],"tree_param":{"num_deleted":"0","num_feature":"4","num_nodes":"7","size_leaf_vector":"1"}},{"base_weights":[-0E0,1.5996149E-2,-1.13259E0,-5.656504E-1,-1.6103912E-2,2.9966757E-3,-1.590033E-2],"categories":[],"categories_nodes":[],"categories_segments":[],"categories_sizes":[],"default_left":[0,0,0,0,0,0,0],"id":36,"left_children":[1,-1,3,5,-1,-1,-1],"loss_changes":[1.8173142E3,0E0,1.5659161E2,2.4185458E2,0E0,0E0,0E0],"parents":[2147483647,0,0,2,2,3,3],"right_children":[2,-1,4,6,-1,-1,-1],"split_conditions":[3.5E0,1.5996149E-2,4.1E0,2.0002E2,-1.6103912E-2,2.9966757E-3,-1.590033E-2],"split_indices":[1,0,1,0,0,0,0],"split_type":[0,0,0,0,0,0,0],"sum_hessian":[1.0000234E3,4.1438754E2,5.856358E2,2.698111E2,3.158247E2,1.4657184E2,1.2323927E2],"tree_param":{"num_deleted":"0","num_feature":"4","num_nodes":"7","size_leaf_vector":"1"}},{"base_weights":[-0E0,7.47837E-1,-1.5438689E-2,1.5126432E-2,5.950989E-1,6.3088583E-3,4.0654237E-3],"categories":[],"categories_nodes":[],"categories_segments":[],"categories_sizes":[],"default_left":[0,0,0,0,0,0,0],"id":37,"left_children":[1,3,-1,-1,5,-1,-1],"loss_changes":[1.153943E3,7.627588E1,0E0,0E0,2.9053345E0,0E0,0E0],"parents":[2147483647,0,0,1,1,4,4],"right_children":[2,4,-1,-1,6,-1,-1],"split_conditions":[2.0002E2,5.031E1,-1.5438689E-2,1.5126432E-2,1.7237E2,6.3088583E-3,4.0654237E-3],"split_indices":[0,0,0,0,0,0,0],"split_type":[0,0,0,0,0,0,0],"sum_hessian":[9.9663806E2,6.720433E2,3.2459482E2,1.09102905E2,5.6294037E2,4.6795465E2,9.4985695E1],"tree_param":{"num_deleted":"0","num_feature":"4","num_nodes":"7","size_leaf_vector":"1"}},{"base_weights":[-0E0,1.5855104E-2,-1.1218624E0,-5.5910325E-1,-1.5975153E-2,2.8978353E-3,-1.5711572E-2],"categories":[],"categories_nodes":[],"categories_segments":[],"categories_sizes":[],"default_left":[0,0,0,0,0,0,0],"id":38,"left_children":[1,-1,3,5,-1,-1,-1],"loss_changes":[1.7740508E3,0E0,1.5389197E2,2.3351865E2,0E0,0E0,0E0],"parents":[2147483647,0,0,2,2,3,3],"right_children":[2,-1,4,6,-1,-1,-1],"split_conditions":[3.5E0,1.5855104E-2,4.1E0,2.0002E2,-1.5975153E-2,2.8978353E-3,-1.5711572E-2],"split_indices":[1,0,1,0,0,0,0],"split_type":[0,0,0,0,0,0,0],"sum_hessian":[9.943023E2,4.1185464E2,5.824477E2,2.6877103E2,3.1367664E2,1.4648193E2,1.2228909E2],"tree_param":{"num_deleted":"0","num_feature":"4","num_nodes":"7","size_leaf_vector":"1"}},{"base_weights":[-0E0,1.5762161E-2,-1.1141568E0,-5.546285E-1,-1.5880905E-2,2.8694756E-3,-1.5619088E-2],"categories":[],"categories_nodes":[],"categories_segments":[],"categories_sizes":[],"default_left":[0,0,0,0,0,0,0],"id":39,"left_children":[1,-1,3,5,-1,-1,-1],"loss_changes":[1.7454047E3,0E0,1.519837E2,2.2998586E2,0E0,0E0,0E0],"parents":[2147483647,0,0,2,2,3,3],"right_children":[2,-1,4,6,-1,-1,-1],"split_conditions":[3.5E0,1.5762161E-2,4.1E0,2.0002E2,-1.5880905E-2,2.8694756E-3,-1.5619088E-2],"split_indices":[1,0,1,0,0,0,0],"split_type":[0,0,0,0,0,0,0],"sum_hessian":[9.908155E2,4.1015768E2,5.806578E2,2.6825964E2,3.1239813E2,1.4646523E2,1.21794426E2],"tree_param":{"num_deleted":"0","num_feature":"4","num_nodes":"7","size_leaf_vector":"1"}},{"base_weights":[-0E0,1.5671197E-2,-1.1065772E0,1.4529158E-2,-1.2061433E0,-7.295649E-3,-1.578307E-2],"categories":[],"categories_nodes":[],"categories_segments":[],"categories_sizes":[],"default_left":[0,0,0,0,0,0,0],"id":40,"left_children":[1,-1,3,-1,5,-1,-1],"loss_changes":[1.7173618E3,0E0,1.5039716E2,0E0,9.6374695E1,0E0,0E0],"parents":[2147483647,0,0,2,2,4,4],"right_children":[2,-1,4,-1,6,-1,-1],"split_conditions":[3.5E0,1.5671197E-2,5.031E1,1.4529158E-2,4.1E0,-7.295649E-3,-1.578307E-2],"split_indices":[1,0,0,0,1,0,0],"split_type":[0,0,0,0,0,0,0],"sum_hessian":[9.872659E2,4.0843042E2,5.788356E2,2.0722492E1,5.5811304E2,2.4726248E2,3.1085056E2],"tree_param":{"num_deleted":"0","num_feature":"4","num_nodes":"7","size_leaf_vector":"1"}},{"base_weights":[-0E0,1.5582154E-2,-1.0986252E0,-5.452234E-1,-1.5698638E-2,2.8846224E-3,-1.5486719E-2],"categories":[],"categories_nodes":[],"categories_segments":[],"categories_sizes":[],"default_left":[0,0,0,0,0,0,0],"id":41,"left_children":[1,-1,3,5,-1,-1,-1],"loss_changes":[1.6895535E3,0E0,1.4857764E2,2.2628442E2,0E0,0E0,0E0],"parents":[2147483647,0,0,2,2,3,3],"right_children":[2,-1,4,6,-1,-1,-1],"split_conditions":[3.5E0,1.5582154E-2,4.1E0,2.0002E2,-1.5698638E-2,2.8846224E-3,-1.5486719E-2],"split_indices":[1,0,1,0,0,0,0],"split_type":[0,0,0,0,0,0,0],"sum_hessian":[9.838863E2,4.0667413E2,5.7721216E2,2.6743954E2,3.097726E2,1.4638794E2,1.210516E2],"tree_param":{"num_deleted":"0","num_feature":"4","num_nodes":"7","size_leaf_vector":"1"}},{"base_weights":[-0E0,1.5494973E-2,-1.0912778E0,1.442274E-2,-1.1900846E0,-7.184225E-3,-1.56044215E-2],"categories":[],"categories_nodes":[],"categories_segments":[],"categories_sizes":[],"default_left":[0,0,0,0,0,0,0],"id":42,"left_children":[1,-1,3,-1,5,-1,-1],"loss_changes":[1.6626638E3,0E0,1.4684851E2,0E0,9.433722E1,0E0,0E0],"parents":[2147483647,0,0,2,2,4,4],"right_children":[2,-1,4,-1,6,-1,-1],"split_conditions":[3.5E0,1.5494973E-2,5.031E1,1.442274E-2,4.1E0,-7.184225E-3,-1.56044215E-2],"split_indices":[1,0,0,0,1,0,0],"split_type":[0,0,0,0,0,0,0],"sum_hessian":[9.8022455E2,4.0488992E2,5.753346E2,2.063993E1,5.546947E2,2.4651277E2,3.081819E2],"tree_param":{"num_deleted":"0","num_feature":"4","num_nodes":"7","size_leaf_vector":"1"}},{"base_weights":[-0E0,1.5409604E-2,-1.0835472E0,-5.360216E-1,-1.55238565E-2,-1.3279724E-3,-7.11733E-3],"categories":[],"categories_nodes":[],"categories_segments":[],"categories_sizes":[],"default_left":[0,0,0,0,0,0,0],"id":43,"left_children":[1,-1,3,5,-1,-1,-1],"loss_changes":[1.6359803E3,0E0,1.4535242E2,1.8431114E1,0E0,0E0,0E0],"parents":[2147483647,0,0,2,2,3,3],"right_children":[2,-1,4,6,-1,-1,-1],"split_conditions":[3.5E0,1.5409604E-2,4.1E0,3.7E0,-1.55238565E-2,-1.3279724E-3,-7.11733E-3],"split_indices":[1,0,1,1,0,0,0],"split_type":[0,0,0,0,0,0,0],"sum_hessian":[9.767414E2,4.0307913E2,5.7366223E2,2.6659955E2,3.0706268E2,8.2578E1,1.8402156E2],"tree_param":{"num_deleted":"0","num_feature":"4","num_nodes":"7","size_leaf_vector":"1"}},{"base_weights":[-0E0,7.145946E-1,-1.4923497E-2,1.4634615E-2,5.6700027E-1,6.018562E-3,3.8359496E-3],"categories":[],"categories_nodes":[],"categories_segments":[],"categories_sizes":[],"default_left":[0,0,0,0,0,0,0],"id":44,"left_children":[1,3,-1,-1,5,-1,-1],"loss_changes":[1.0410466E3,7.072278E1,0E0,0E0,2.7063904E0,0E0,0E0],"parents":[2147483647,0,0,1,1,4,4],"right_children":[2,4,-1,-1,6,-1,-1],"split_conditions":[2.0002E2,5.031E1,-1.4923497E-2,1.4634615E-2,1.7237E2,6.018562E-3,3.8359496E-3],"split_indices":[0,0,0,0,0,0,0],"split_type":[0,0,0,0,0,0,0],"sum_hessian":[9.7335004E2,6.588059E2,3.1454413E2,1.0570701E2,5.530989E2,4.596034E2,9.349547E1],"tree_param":{"num_deleted":"0","num_feature":"4","num_nodes":"7","size_leaf_vector":"1"}},{"base_weights":[-0E0,1.5287183E-2,-1.07329E0,-5.2930355E-1,-1.5413026E-2,2.8816196E-3,-1.5244616E-2],"categories":[],"categories_nodes":[],"categories_segments":[],"categories_sizes":[],"default_left":[0,0,0,0,0,0,0],"id":45,"left_children":[1,-1,3,5,-1,-1,-1],"loss_changes":[1.5979338E3,0E0,1.4338342E2,2.1875685E2,0E0,0E0,0E0],"parents":[2147483647,0,0,2,2,3,3],"right_children":[2,-1,4,6,-1,-1,-1],"split_conditions":[3.5E0,1.5287183E-2,4.1E0,2.0002E2,-1.5413026E-2,2.8816196E-3,-1.5244616E-2],"split_indices":[1,0,1,0,0,0,0],"split_type":[0,0,0,0,0,0,0],"sum_hessian":[9.708391E2,4.002781E2,5.70561E2,2.6583594E2,3.0472504E2,1.4625722E2,1.19578735E2],"tree_param":{"num_deleted":"0","num_feature":"4","num_nodes":"7","size_leaf_vector":"1"}},{"base_weights":[-0E0,1.5206083E-2,-1.0663164E0,-5.251659E-1,-1.533055E-2,2.8534227E-3,-1.51617415E-2],"categories":[],"categories_nodes":[],"categories_segments":[],"categories_sizes":[],"default_left":[0,0,0,0,0,0,0],"id":46,"left_children":[1,-1,3,5,-1,-1,-1],"loss_changes":[1.5729009E3,0E0,1.4175604E2,2.1554852E2,0E0,0E0,0E0],"parents":[2147483647,0,0,2,2,3,3],"right_children":[2,-1,4,6,-1,-1,-1],"split_conditions":[3.5E0,1.5206083E-2,4.1E0,2.0002E2,-1.533055E-2,2.8534227E-3,-1.51617415E-2],"split_indices":[1,0,1,0,0,0,0],"split_type":[0,0,0,0,0,0,0],"sum_hessian":[9.670034E2,3.984062E2,5.685972E2,2.652813E2,3.033159E2,1.462404E2,1.19040924E2],"tree_param":{"num_deleted":"0","num_feature":"4","num_nodes":"7","size_leaf_vector":"1"}},{"base_weights":[-0E0,1.5126619E-2,-1.0594478E0,1.4247959E-2,-1.1572374E0,-6.956795E-3,-1.5243714E-2],"categories":[],"categories_nodes":[],"categories_segments":[],"categories_sizes":[],"default_left":[0,0,0,0,0,0,0],"id":47,"left_children":[1,-1,3,-1,5,-1,-1],"loss_changes":[1.5483705E3,0E0,1.4035187E2,0E0,9.009448E1,0E0,0E0],"parents":[2147483647,0,0,2,2,4,4],"right_children":[2,-1,4,-1,6,-1,-1],"split_conditions":[3.5E0,1.5126619E-2,5.031E1,1.4247959E-2,4.1E0,-6.956795E-3,-1.5243714E-2],"split_indices":[1,0,0,0,1,0,0],"split_type":[0,0,0,0,0,0,0],"sum_hessian":[9.631201E2,3.9651154E2,5.666086E2,2.0494667E1,5.4611395E2,2.4447112E2,3.0164282E2],"tree_param":{"num_deleted":"0","num_feature":"4","num_nodes":"7","size_leaf_vector":"1"}},{"base_weights":[-0E0,6.954571E-1,-1.4645837E-2,1.4373257E-2,5.505734E-1,5.848955E-3,3.7014761E-3],"categories":[],"categories_nodes":[],"categories_segments":[],"categories_sizes":[],"default_left":[0,0,0,0,0,0,0],"id":48,"left_children":[1,3,-1,-1,5,-1,-1],"loss_changes":[9.801542E2,6.796939E1,0E0,0E0,2.5975647E0,0E0,0E0],"parents":[2147483647,0,0,1,1,4,4],"right_children":[2,4,-1,-1,6,-1,-1],"split_conditions":[2.0002E2,5.031E1,-1.4645837E-2,1.4373257E-2,1.7237E2,5.848955E-3,3.7014761E-3],"split_indices":[0,0,0,0,0,0,0],"split_type":[0,0,0,0,0,0,0],"sum_hessian":[9.594401E2,6.5115515E2,3.0828497E2,1.036401E2,5.475151E2,4.5485498E2,9.266007E1],"tree_param":{"num_deleted":"0","num_feature":"4","num_nodes":"7","size_leaf_vector":"1"}},{"base_weights":[-0E0,6.895959E-1,-1.4577134E-2,1.4305405E-2,5.4552335E-1,5.7955906E-3,3.666401E-3],"categories":[],"categories_nodes":[],"categories_segments":[],"categories_sizes":[],"default_left":[0,0,0,0,0,0,0],"id":49,"left_children":[1,3,-1,-1,5,-1,-1],"loss_changes":[9.647174E2,6.740958E1,0E0,0E0,2.548233E0,0E0,0E0],"parents":[2147483647,0,0,1,1,4,4],"right_children":[2,4,-1,-1,6,-1,-1],"split_conditions":[2.0002E2,5.031E1,-1.4577134E-2,1.4305405E-2,1.7237E2,5.7955906E-3,3.666401E-3],"split_indices":[0,0,0,0,0,0,0],"split_type":[0,0,0,0,0,0,0],"sum_hessian":[9.5685004E2,6.501942E2,3.0665582E2,1.03100174E2,5.4709406E2,4.544685E2,9.2625534E1],"tree_param":{"num_deleted":"0","num_feature":"4","num_nodes":"7","size_leaf_vector":"1"}},{"base_weights":[-0E0,1.4977904E-2,-1.0478199E0,-5.1316327E-1,-1.5125838E-2,2.7384122E-3,-1.4891487E-2],"categories":[],"categories_nodes":[],"categories_segments":[],"categories_sizes":[],"default_left":[0,0,0,0,0,0,0],"id":50,"left_children":[1,-1,3,5,-1,-1,-1],"loss_changes":[1.502407E3,0E0,1.3775647E2,2.0449707E2,0E0,0E0,0E0],"parents":[2147483647,0,0,2,2,3,3],"right_children":[2,-1,4,6,-1,-1,-1],"split_conditions":[3.5E0,1.4977904E-2,4.1E0,2.0002E2,-1.5125838E-2,2.7384122E-3,-1.4891487E-2],"split_indices":[1,0,1,0,0,0,0],"split_type":[0,0,0,0,0,0,0],"sum_hessian":[9.542416E2,3.926037E2,5.616379E2,2.631484E2,2.9848947E2,1.4599188E2,1.1715651E2],"tree_param":{"num_deleted":"0","num_feature":"4","num_nodes":"7","size_leaf_vector":"1"}},{"base_weights":[-0E0,6.7912763E-1,-1.4441262E-2,1.4184967E-2,5.3622484E-1,5.699296E-3,3.5918893E-3],"categories":[],"categories_nodes":[],"categories_segments":[],"categories_sizes":[],"default_left":[0,0,0,0,0,0,0],"id":51,"left_children":[1,3,-1,-1,5,-1,-1],"loss_changes":[9.34729E2,6.6393616E1,0E0,0E0,2.4885864E0,0E0,0E0],"parents":[2147483647,0,0,1,1,4,4],"right_children":[2,4,-1,-1,6,-1,-1],"split_conditions":[2.0002E2,5.031E1,-1.4441262E-2,1.4184967E-2,1.7237E2,5.699296E-3,3.5918893E-3],"split_indices":[0,0,0,0,0,0,0],"split_type":[0,0,0,0,0,0,0],"sum_hessian":[9.502327E2,6.469316E2,3.0330115E2,1.0204898E2,5.4488257E2,4.5256784E2,9.231476E1],"tree_param":{"num_deleted":"0","num_feature":"4","num_nodes":"7","size_leaf_vector":"1"}},{"base_weights":[-0E0,1.4869274E-2,-1.0392274E0,-5.076998E-1,-1.5028947E-2,-1.1423186E-3,-6.802013E-3],"categories":[],"categories_nodes":[],"categories_segments":[],"categories_sizes":[],"default_left":[0,0,0,0,0,0,0],"id":52,"left_children":[1,-1,3,5,-1,-1,-1],"loss_changes":[1.4690009E3,0E0,1.3572693E2,1.7365372E1,0E0,0E0,0E0],"parents":[2147483647,0,0,2,2,3,3],"right_children":[2,-1,4,6,-1,-1,-1],"split_conditions":[3.5E0,1.4869274E-2,4.1E0,3.7E0,-1.5028947E-2,-1.1423186E-3,-6.802013E-3],"split_indices":[1,0,1,1,0,0,0],"split_type":[0,0,0,0,0,0,0],"sum_hessian":[9.475912E2,3.8964447E2,5.579467E2,2.619173E2,2.9602942E2,8.147301E1,1.804443E2],"tree_param":{"num_deleted":"0","num_feature":"4","num_nodes":"7","size_leaf_vector":"1"}},{"base_weights":[-0E0,1.4796509E-2,-1.0320109E0,-5.030349E-1,-1.4954487E-2,2.695024E-3,-1.4716178E-2],"categories":[],"categories_nodes":[],"categories_segments":[],"categories_sizes":[],"default_left":[0,0,0,0,0,0,0],"id":53,"left_children":[1,-1,3,5,-1,-1,-1],"loss_changes":[1.4460802E3,0E0,1.3461053E2,1.9816684E2,0E0,0E0,0E0],"parents":[2147483647,0,0,2,2,3,3],"right_children":[2,-1,4,6,-1,-1,-1],"split_conditions":[3.5E0,1.4796509E-2,4.1E0,2.0002E2,-1.4954487E-2,2.695024E-3,-1.4716178E-2],"split_indices":[1,0,1,0,0,0,0],"split_type":[0,0,0,0,0,0,0],"sum_hessian":[9.439418E2,3.8766223E2,5.5627954E2,2.617363E2,2.9454327E2,1.4591866E2,1.15817635E2],"tree_param":{"num_deleted":"0","num_feature":"4","num_nodes":"7","size_leaf_vector":"1"}},{"base_weights":[-0E0,1.4725157E-2,-1.0256497E0,-4.9920633E-1,-1.4881447E-2,2.6686967E-3,-1.4643642E-2],"categories":[],"categories_nodes":[],"categories_segments":[],"categories_sizes":[],"default_left":[0,0,0,0,0,0,0],"id":54,"left_children":[1,-1,3,5,-1,-1,-1],"loss_changes":[1.4240386E3,0E0,1.3318774E2,1.9537479E2,0E0,0E0,0E0],"parents":[2147483647,0,0,2,2,3,3],"right_children":[2,-1,4,6,-1,-1,-1],"split_conditions":[3.5E0,1.4725157E-2,4.1E0,2.0002E2,-1.4881447E-2,2.6686967E-3,-1.4643642E-2],"split_indices":[1,0,1,0,0,0,0],"split_type":[0,0,0,0,0,0,0],"sum_hessian":[9.398438E2,3.8566266E2,5.541811E2,2.611372E2,2.930439E2,1.4589944E2,1.15237755E2],"tree_param":{"num_deleted":"0","num_feature":"4","num_nodes":"7","size_leaf_vector":"1"}},{"base_weights":[-0E0,1.465517E-2,-1.0193759E0,-4.954201E-1,-1.4809789E-2,2.642634E-3,-1.4572483E-2],"categories":[],"categories_nodes":[],"categories_segments":[],"categories_sizes":[],"default_left":[0,0,0,0,0,0,0],"id":55,"left_children":[1,-1,3,5,-1,-1,-1],"loss_changes":[1.402419E3,0E0,1.317962E2,1.9263747E2,0E0,0E0,0E0],"parents":[2147483647,0,0,2,2,3,3],"right_children":[2,-1,4,6,-1,-1,-1],"split_conditions":[3.5E0,1.465517E-2,4.1E0,2.0002E2,-1.4809789E-2,2.642634E-3,-1.4572483E-2],"split_indices":[1,0,1,0,0,0,0],"split_type":[0,0,0,0,0,0,0],"sum_hessian":[9.357113E2,3.836466E2,5.520647E2,2.6053265E2,2.9153204E2,1.4587993E2,1.1465274E2],"tree_param":{"num_deleted":"0","num_feature":"4","num_nodes":"7","size_leaf_vector":"1"}},{"base_weights":[-0E0,1.45865185E-2,-1.0131874E0,-4.9167538E-1,-1.4739477E-2,-1.0413832E-3,-6.621267E-3],"categories":[],"categories_nodes":[],"categories_segments":[],"categories_sizes":[],"default_left":[0,0,0,0,0,0,0],"id":56,"left_children":[1,-1,3,5,-1,-1,-1],"loss_changes":[1.3812117E3,0E0,1.304347E2,1.6782051E1,0E0,0E0,0E0],"parents":[2147483647,0,0,2,2,3,3],"right_children":[2,-1,4,6,-1,-1,-1],"split_conditions":[3.5E0,1.45865185E-2,4.1E0,3.7E0,-1.4739477E-2,-1.0413832E-3,-6.621267E-3],"split_indices":[1,0,1,1,0,0,0],"split_type":[0,0,0,0,0,0,0],"sum_hessian":[9.3154626E2,3.81615E2,5.499313E2,2.5992297E2,2.900083E2,8.103412E1,1.7888884E2],"tree_param":{"num_deleted":"0","num_feature":"4","num_nodes":"7","size_leaf_vector":"1"}},{"base_weights":[-0E0,1.4519165E-2,-1.0062946E0,-4.8716843E-1,-1.4670476E-2,2.66153E-3,-1.4477884E-2],"categories":[],"categories_nodes":[],"categories_segments":[],"categories_sizes":[],"default_left":[0,0,0,0,0,0,0],"id":57,"left_children":[1,-1,3,5,-1,-1,-1],"loss_changes":[1.35997E3,0E0,1.2943573E2,1.9021529E2,0E0,0E0,0E0],"parents":[2147483647,0,0,2,2,3,3],"right_children":[2,-1,4,6,-1,-1,-1],"split_conditions":[3.5E0,1.4519165E-2,4.1E0,2.0002E2,-1.4670476E-2,2.66153E-3,-1.4477884E-2],"split_indices":[1,0,1,0,0,0,0],"split_type":[0,0,0,0,0,0,0],"sum_hessian":[9.2778015E2,3.7956866E2,5.482115E2,2.5973813E2,2.8847336E2,1.458926E2,1.1384555E2],"tree_param":{"num_deleted":"0","num_feature":"4","num_nodes":"7","size_leaf_vector":"1"}},{"base_weights":[-0E0,6.5024173E-1,-1.4033076E-2,1.3843648E-2,5.102185E-1,5.433675E-3,3.3647548E-3],"categories":[],"categories_nodes":[],"categories_segments":[],"categories_sizes":[],"default_left":[0,0,0,0,0,0,0],"id":58,"left_children":[1,3,-1,-1,5,-1,-1],"loss_changes":[8.4540826E2,6.3083954E1,0E0,0E0,2.36557E0,0E0,0E0],"parents":[2147483647,0,0,1,1,4,4],"right_children":[2,4,-1,-1,6,-1,-1],"split_conditions":[2.0002E2,5.031E1,-1.4033076E-2,1.3843648E-2,1.7237E2,5.433675E-3,3.3647548E-3],"split_indices":[0,0,0,0,0,0,0],"split_type":[0,0,0,0,0,0,0],"sum_hessian":[9.235588E2,6.317136E2,2.9184512E2,9.848245E1,5.3323114E2,4.4269833E2,9.053282E1],"tree_param":{"num_deleted":"0","num_feature":"4","num_nodes":"7","size_leaf_vector":"1"}},{"base_weights":[-0E0,1.442378E-2,-9.98531E-1,-4.8215213E-1,-1.4585991E-2,2.575421E-3,-1.4344754E-2],"categories":[],"categories_nodes":[],"categories_segments":[],"categories_sizes":[],"default_left":[0,0,0,0,0,0,0],"id":59,"left_children":[1,-1,3,5,-1,-1,-1],"loss_changes":[1.3306174E3,0E0,1.2765741E2,1.8425806E2,0E0,0E0,0E0],"parents":[2147483647,0,0,2,2,3,3],"right_children":[2,-1,4,6,-1,-1,-1],"split_conditions":[3.5E0,1.442378E-2,4.1E0,2.0002E2,-1.4585991E-2,2.575421E-3,-1.4344754E-2],"split_indices":[1,0,1,0,0,0,0],"split_type":[0,0,0,0,0,0,0],"sum_hessian":[9.208416E2,3.7646902E2,5.4437256E2,2.584491E2,2.859235E2,1.457841E2,1.12664986E2],"tree_param":{"num_deleted":"0","num_feature":"4","num_nodes":"7","size_leaf_vector":"1"}},{"base_weights":[-0E0,1.4359479E-2,-9.9261445E-1,-4.7854602E-1,-1.4519955E-2,2.5502853E-3,-1.4279141E-2],"categories":[],"categories_nodes":[],"categories_segments":[],"categories_sizes":[],"default_left":[0,0,0,0,0,0,0],"id":60,"left_children":[1,-1,3,5,-1,-1,-1],"loss_changes":[1.3107554E3,0E0,1.2638678E2,1.8173453E2,0E0,0E0,0E0],"parents":[2147483647,0,0,2,2,3,3],"right_children":[2,-1,4,6,-1,-1,-1],"split_conditions":[3.5E0,1.4359479E-2,4.1E0,2.0002E2,-1.4519955E-2,2.5502853E-3,-1.4279141E-2],"split_indices":[1,0,1,0,0,0,0],"split_type":[0,0,0,0,0,0,0],"sum_hessian":[9.16581E2,3.7439038E2,5.421906E2,2.5782434E2,2.8436627E2,1.4576357E2,1.1206078E2],"tree_param":{"num_deleted":"0","num_feature":"4","num_nodes":"7","size_leaf_vector":"1"}},{"base_weights":[-0E0,1.4296366E-2,-9.8677355E-1,-4.7497734E-1,-1.4455118E-2,2.5254013E-3,-1.4214721E-2],"categories":[],"categories_nodes":[],"categories_segments":[],"categories_sizes":[],"default_left":[0,0,0,0,0,0,0],"id":61,"left_children":[1,-1,3,5,-1,-1,-1],"loss_changes":[1.291261E3,0E0,1.25142456E2,1.792585E2,0E0,0E0,0E0],"parents":[2147483647,0,0,2,2,3,3],"right_children":[2,-1,4,6,-1,-1,-1],"split_conditions":[3.5E0,1.4296366E-2,4.1E0,2.0002E2,-1.4455118E-2,2.5254013E-3,-1.4214721E-2],"split_indices":[1,0,1,0,0,0,0],"split_type":[0,0,0,0,0,0,0],"sum_hessian":[9.1229535E2,3.722999E2,5.399955E2,2.5719556E2,2.827999E2,1.4574277E2,1.114528E2],"tree_param":{"num_deleted":"0","num_feature":"4","num_nodes":"7","size_leaf_vector":"1"}},{"base_weights":[-0E0,1.4234408E-2,-9.810063E-1,1.3786173E-2,-1.0770849E0,-6.397115E-3,-1.4385023E-2],"categories":[],"categories_nodes":[],"categories_segments":[],"categories_sizes":[],"default_left":[0,0,0,0,0,0,0],"id":62,"left_children":[1,-1,3,-1,5,-1,-1],"loss_changes":[1.2721255E3,0E0,1.24338135E2,0E0,7.965808E1,0E0,0E0],"parents":[2147483647,0,0,2,2,4,4],"right_children":[2,-1,4,-1,6,-1,-1],"split_conditions":[3.5E0,1.4234408E-2,5.031E1,1.3786173E-2,4.1E0,-6.397115E-3,-1.4385023E-2],"split_indices":[1,0,0,0,1,0,0],"split_type":[0,0,0,0,0,0,0],"sum_hessian":[9.0798627E2,3.7019824E2,5.37788E2,2.005376E1,5.1773425E2,2.367577E2,2.8097656E2],"tree_param":{"num_deleted":"0","num_feature":"4","num_nodes":"7","size_leaf_vector":"1"}},{"base_weights":[-0E0,6.300392E-1,-1.3762074E-2,1.3596186E-2,4.9249774E-1,5.252148E-3,3.2127379E-3],"categories":[],"categories_nodes":[],"categories_segments":[],"categories_sizes":[],"default_left":[0,0,0,0,0,0,0],"id":63,"left_children":[1,3,-1,-1,5,-1,-1],"loss_changes":[7.8634106E2,6.050197E1,0E0,0E0,2.2725372E0,0E0,0E0],"parents":[2147483647,0,0,1,1,4,4],"right_children":[2,4,-1,-1,6,-1,-1],"split_conditions":[2.0002E2,5.031E1,-1.3762074E-2,1.3596186E-2,1.7237E2,5.252148E-3,3.2127379E-3],"split_indices":[0,0,0,0,0,0,0],"split_type":[0,0,0,0,0,0,0],"sum_hessian":[9.039511E2,6.206628E2,2.8328833E2,9.5758E1,5.249048E2,4.356421E2,8.926268E1],"tree_param":{"num_deleted":"0","num_feature":"4","num_nodes":"7","size_leaf_vector":"1"}},{"base_weights":[-0E0,1.4147012E-2,-9.731674E-1,-4.6602792E-1,-1.4314793E-2,-8.5730694E-4,-6.3436273E-3],"categories":[],"categories_nodes":[],"categories_segments":[],"categories_sizes":[],"default_left":[0,0,0,0,0,0,0],"id":64,"left_children":[1,-1,3,5,-1,-1,-1],"loss_changes":[1.2448842E3,0E0,1.22554474E2,1.6012707E1,0E0,0E0,0E0],"parents":[2147483647,0,0,2,2,3,3],"right_children":[2,-1,4,6,-1,-1,-1],"split_conditions":[3.5E0,1.4147012E-2,4.1E0,3.7E0,-1.4314793E-2,-8.5730694E-4,-6.3436273E-3],"split_indices":[1,0,1,1,0,0,0],"split_type":[0,0,0,0,0,0,0],"sum_hessian":[9.012015E2,3.6703513E2,5.341663E2,2.5552946E2,2.7863687E2,8.00092E1,1.7552026E2],"tree_param":{"num_deleted":"0","num_feature":"4","num_nodes":"7","size_leaf_vector":"1"}},{"base_weights":[-0E0,6.2246865E-1,-1.3671681E-2,1.3509896E-2,4.8596963E-1,5.1837596E-3,3.1643892E-3],"categories":[],"categories_nodes":[],"categories_segments":[],"categories_sizes":[],"default_left":[0,0,0,0,0,0,0],"id":65,"left_children":[1,3,-1,-1,5,-1,-1],"loss_changes":[7.6612933E2,5.9617996E1,0E0,0E0,2.2151108E0,0E0,0E0],"parents":[2147483647,0,0,1,1,4,4],"right_children":[2,4,-1,-1,6,-1,-1],"split_conditions":[2.0002E2,5.031E1,-1.3671681E-2,1.3509896E-2,1.7237E2,5.1837596E-3,3.1643892E-3],"split_indices":[0,0,0,0,0,0,0],"split_type":[0,0,0,0,0,0,0],"sum_hessian":[8.972976E2,6.171625E2,2.8013513E2,9.470339E1,5.224591E2,4.3354886E2,8.891023E1],"tree_param":{"num_deleted":"0","num_feature":"4","num_nodes":"7","size_leaf_vector":"1"}},{"base_weights":[-0E0,6.173295E-1,-1.3620539E-2,1.345723E-2,4.815491E-1,5.136891E-3,3.1345084E-3],"categories":[],"categories_nodes":[],"categories_segments":[],"categories_sizes":[],"default_left":[0,0,0,0,0,0,0],"id":66,"left_children":[1,3,-1,-1,5,-1,-1],"loss_changes":[7.5463306E2,5.920105E1,0E0,0E0,2.173317E0,0E0,0E0],"parents":[2147483647,0,0,1,1,4,4],"right_children":[2,4,-1,-1,6,-1,-1],"split_conditions":[2.0002E2,5.031E1,-1.3620539E-2,1.345723E-2,1.7237E2,5.136891E-3,3.1345084E-3],"split_indices":[0,0,0,0,0,0,0],"split_type":[0,0,0,0,0,0,0],"sum_hessian":[8.945414E2,6.1615186E2,2.783895E2,9.413201E1,5.220199E2,4.3314523E2,8.887465E1],"tree_param":{"num_deleted":"0","num_feature":"4","num_nodes":"7","size_leaf_vector":"1"}},{"base_weights":[-0E0,6.1223614E-1,-1.3570258E-2,1.34054E-2,4.7716957E-1,5.090454E-3,3.1049123E-3],"categories":[],"categories_nodes":[],"categories_segments":[],"categories_sizes":[],"default_left":[0,0,0,0,0,0,0],"id":67,"left_children":[1,3,-1,-1,5,-1,-1],"loss_changes":[7.4333936E2,5.8790222E1,0E0,0E0,2.1322784E0,0E0,0E0],"parents":[2147483647,0,0,1,1,4,4],"right_children":[2,4,-1,-1,6,-1,-1],"split_conditions":[2.0002E2,5.031E1,-1.3570258E-2,1.34054E-2,1.7237E2,5.090454E-3,3.1049123E-3],"split_indices":[0,0,0,0,0,0,0],"split_type":[0,0,0,0,0,0,0],"sum_hessian":[8.917811E2,6.151401E2,2.7664108E2,9.355967E1,5.215804E2,4.327413E2,8.883908E1],"tree_param":{"num_deleted":"0","num_feature":"4","num_nodes":"7","size_leaf_vector":"1"}},{"base_weights":[-0E0,1.4012164E-2,-9.6247435E-1,-4.582644E-1,-1.4215981E-2,-8.3253195E-4,-6.2475735E-3],"categories":[],"categories_nodes":[],"categories_segments":[],"categories_sizes":[],"default_left":[0,0,0,0,0,0,0],"id":68,"left_children":[1,-1,3,5,-1,-1,-1],"loss_changes":[1.2030493E3,0E0,1.2048654E2,1.5472866E1,0E0,0E0,0E0],"parents":[2147483647,0,0,2,2,3,3],"right_children":[2,-1,4,6,-1,-1,-1],"split_conditions":[3.5E0,1.4012164E-2,4.1E0,3.7E0,-1.4215981E-2,-8.3253195E-4,-6.2475735E-3],"split_indices":[1,0,1,1,0,0,0],"split_type":[0,0,0,0,0,0,0],"sum_hessian":[8.890175E2,3.617636E2,5.272539E2,2.532361E2,2.7401782E2,7.9476105E1,1.7376E2],"tree_param":{"num_deleted":"0","num_feature":"4","num_nodes":"7","size_leaf_vector":"1"}},{"base_weights":[-0E0,6.049111E-1,-1.3485515E-2,1.3324556E-2,4.7084823E-1,5.0242413E-3,3.058046E-3],"categories":[],"categories_nodes":[],"categories_segments":[],"categories_sizes":[],"default_left":[0,0,0,0,0,0,0],"id":69,"left_children":[1,3,-1,-1,5,-1,-1],"loss_changes":[7.244032E2,5.795941E1,0E0,0E0,2.078598E0,0E0,0E0],"parents":[2147483647,0,0,1,1,4,4],"right_children":[2,4,-1,-1,6,-1,-1],"split_conditions":[2.0002E2,5.031E1,-1.3485515E-2,1.3324556E-2,1.7237E2,5.0242413E-3,3.058046E-3],"split_indices":[0,0,0,0,0,0,0],"split_type":[0,0,0,0,0,0,0],"sum_hessian":[8.8508997E2,6.116242E2,2.734658E2,9.2499756E1,5.191244E2,4.306394E2,8.848502E1],"tree_param":{"num_deleted":"0","num_feature":"4","num_nodes":"7","size_leaf_vector":"1"}},{"base_weights":[-0E0,1.39314495E-2,-9.5486915E-1,-4.5296478E-1,-1.41462E-2,2.3369386E-3,-1.379341E-2],"categories":[],"categories_nodes":[],"categories_segments":[],"categories_sizes":[],"default_left":[0,0,0,0,0,0,0],"id":70,"left_children":[1,-1,3,5,-1,-1,-1],"loss_changes":[1.1777628E3,0E0,1.1930667E2,1.6252426E2,0E0,0E0,0E0],"parents":[2147483647,0,0,2,2,3,3],"right_children":[2,-1,4,6,-1,-1,-1],"split_conditions":[3.5E0,1.39314495E-2,4.1E0,2.0002E2,-1.41462E-2,2.3369386E-3,-1.379341E-2],"split_indices":[1,0,1,0,0,0,0],"split_type":[0,0,0,0,0,0,0],"sum_hessian":[8.823244E2,3.5857584E2,5.2374854E2,2.523388E2,2.7140976E2,1.4525395E2,1.07084854E2],"tree_param":{"num_deleted":"0","num_feature":"4","num_nodes":"7","size_leaf_vector":"1"}},{"base_weights":[-0E0,1.3876081E-2,-9.4949836E-1,-4.496565E-1,-1.4088605E-2,2.3141624E-3,-1.3737538E-2],"categories":[],"categories_nodes":[],"categories_segments":[],"categories_sizes":[],"default_left":[0,0,0,0,0,0,0],"id":71,"left_children":[1,-1,3,5,-1,-1,-1],"loss_changes":[1.1606699E3,0E0,1.1820441E2,1.6039763E2,0E0,0E0,0E0],"parents":[2147483647,0,0,2,2,3,3],"right_children":[2,-1,4,6,-1,-1,-1],"split_conditions":[3.5E0,1.3876081E-2,4.1E0,2.0002E2,-1.4088605E-2,2.3141624E-3,-1.3737538E-2],"split_indices":[1,0,1,0,0,0,0],"split_type":[0,0,0,0,0,0,0],"sum_hessian":[8.7791766E2,3.5642334E2,5.214943E2,2.5168604E2,2.698083E2,1.452316E2,1.0645444E2],"tree_param":{"num_deleted":"0","num_feature":"4","num_nodes":"7","size_leaf_vector":"1"}},{"base_weights":[-0E0,5.9253985E-1,-1.3340151E-2,1.3201766E-2,4.596157E-1,4.9091387E-3,2.9620558E-3],"categories":[],"categories_nodes":[],"categories_segments":[],"categories_sizes":[],"default_left":[0,0,0,0,0,0,0],"id":72,"left_children":[1,3,-1,-1,5,-1,-1],"loss_changes":[6.9279236E2,5.6904205E1,0E0,0E0,2.0277786E0,0E0,0E0],"parents":[2147483647,0,0,1,1,4,4],"right_children":[2,4,-1,-1,6,-1,-1],"split_conditions":[2.0002E2,5.031E1,-1.3340151E-2,1.3201766E-2,1.7237E2,4.9091387E-3,2.9620558E-3],"split_indices":[0,0,0,0,0,0,0],"split_type":[0,0,0,0,0,0,0],"sum_hessian":[8.734979E2,6.054475E2,2.6805045E2,9.08683E1,5.145792E2,4.2677286E2,8.780637E1],"tree_param":{"num_deleted":"0","num_feature":"4","num_nodes":"7","size_leaf_vector":"1"}},{"base_weights":[-0E0,5.8766955E-1,-1.3294524E-2,1.3154032E-2,4.5543963E-1,4.864805E-3,2.934092E-3],"categories":[],"categories_nodes":[],"categories_segments":[],"categories_sizes":[],"default_left":[0,0,0,0,0,0,0],"id":73,"left_children":[1,3,-1,-1,5,-1,-1],"loss_changes":[6.8257556E2,5.652417E1,0E0,0E0,1.9894028E0,0E0,0E0],"parents":[2147483647,0,0,1,1,4,4],"right_children":[2,4,-1,-1,6,-1,-1],"split_conditions":[2.0002E2,5.031E1,-1.3294524E-2,1.3154032E-2,1.7237E2,4.864805E-3,2.934092E-3],"split_indices":[0,0,0,0,0,0,0],"split_type":[0,0,0,0,0,0,0],"sum_hessian":[8.707315E2,6.044369E2,2.6629462E2,9.029441E1,5.1414246E2,4.263712E2,8.777127E1],"tree_param":{"num_deleted":"0","num_feature":"4","num_nodes":"7","size_leaf_vector":"1"}},{"base_weights":[-0E0,1.3776905E-2,-9.4182557E-1,-4.4432428E-1,-1.4013309E-2,-7.542396E-4,-6.08918E-3],"categories":[],"categories_nodes":[],"categories_segments":[],"categories_sizes":[],"default_left":[0,0,0,0,0,0,0],"id":74,"left_children":[1,-1,3,5,-1,-1,-1],"loss_changes":[1.1301525E3,0E0,1.1639545E2,1.4834763E1,0E0,0E0,0E0],"parents":[2147483647,0,0,2,2,3,3],"right_children":[2,-1,4,6,-1,-1,-1],"split_conditions":[3.5E0,1.3776905E-2,4.1E0,3.7E0,-1.4013309E-2,-7.542396E-4,-6.08918E-3],"split_indices":[1,0,1,1,0,0,0],"split_type":[0,0,0,0,0,0,0],"sum_hessian":[8.6796515E2,3.5218655E2,5.157786E2,2.4958948E2,2.6618912E2,7.8615486E1,1.70974E2],"tree_param":{"num_deleted":"0","num_feature":"4","num_nodes":"7","size_leaf_vector":"1"}},{"base_weights":[-0E0,1.3724239E-2,-9.35755E-1,-4.402704E-1,-1.3958214E-2,-7.468873E-4,-6.0351854E-3],"categories":[],"categories_nodes":[],"categories_segments":[],"categories_sizes":[],"default_left":[0,0,0,0,0,0,0],"id":75,"left_children":[1,-1,3,5,-1,-1,-1],"loss_changes":[1.1134807E3,0E0,1.1566797E2,1.4567333E1,0E0,0E0,0E0],"parents":[2147483647,0,0,2,2,3,3],"right_children":[2,-1,4,6,-1,-1,-1],"split_conditions":[3.5E0,1.3724239E-2,4.1E0,3.7E0,-1.3958214E-2,-7.468873E-4,-6.0351854E-3],"split_indices":[1,0,1,1,0,0,0],"split_type":[0,0,0,0,0,0,0],"sum_hessian":[8.6400397E2,3.5001923E2,5.139848E2,2.4940338E2,2.645814E2,7.861044E1,1.7079294E2],"tree_param":{"num_deleted":"0","num_feature":"4","num_nodes":"7","size_leaf_vector":"1"}},{"base_weights":[-0E0,1.3672477E-2,-9.297428E-1,-4.3625483E-1,-1.390404E-2,2.2629441E-3,-1.3542005E-2],"categories":[],"categories_nodes":[],"categories_segments":[],"categories_sizes":[],"default_left":[0,0,0,0,0,0,0],"id":76,"left_children":[1,-1,3,5,-1,-1,-1],"loss_changes":[1.0971005E3,0E0,1.1495364E2,1.5350558E2,0E0,0E0,0E0],"parents":[2147483647,0,0,2,2,3,3],"right_children":[2,-1,4,6,-1,-1,-1],"split_conditions":[3.5E0,1.3672477E-2,4.1E0,2.0002E2,-1.390404E-2,2.2629441E-3,-1.3542005E-2],"split_indices":[1,0,1,0,0,0,0],"split_type":[0,0,0,0,0,0,0],"sum_hessian":[8.6003436E2,3.478475E2,5.121869E2,2.4921678E2,2.629701E2,1.4508426E2,1.04132515E2],"tree_param":{"num_deleted":"0","num_feature":"4","num_nodes":"7","size_leaf_vector":"1"}},{"base_weights":[-0E0,5.7515544E-1,-1.3141604E-2,1.3022016E-2,4.443187E-1,4.750465E-3,2.840891E-3],"categories":[],"categories_nodes":[],"categories_segments":[],"categories_sizes":[],"default_left":[0,0,0,0,0,0,0],"id":77,"left_children":[1,3,-1,-1,5,-1,-1],"loss_changes":[6.4893585E2,5.5069473E1,0E0,0E0,1.924057E0,0E0,0E0],"parents":[2147483647,0,0,1,1,4,4],"right_children":[2,4,-1,-1,6,-1,-1],"split_conditions":[2.0002E2,5.031E1,-1.3141604E-2,1.3022016E-2,1.7237E2,4.750465E-3,2.840891E-3],"split_indices":[0,0,0,0,0,0,0],"split_type":[0,0,0,0,0,0,0],"sum_hessian":[8.5558386E2,5.957249E2,2.5985898E2,8.822373E1,5.0750116E2,4.2074564E2,8.675554E1],"tree_param":{"num_deleted":"0","num_feature":"4","num_nodes":"7","size_leaf_vector":"1"}},{"base_weights":[-0E0,1.3600933E-2,-9.2357075E-1,-4.32128E-1,-1.38430465E-2,2.1877852E-3,-1.3440867E-2],"categories":[],"categories_nodes":[],"categories_segments":[],"categories_sizes":[],"default_left":[0,0,0,0,0,0,0],"id":78,"left_children":[1,-1,3,5,-1,-1,-1],"loss_changes":[1.0750619E3,0E0,1.1360095E2,1.490074E2,0E0,0E0,0E0],"parents":[2147483647,0,0,2,2,3,3],"right_children":[2,-1,4,6,-1,-1,-1],"split_conditions":[3.5E0,1.3600933E-2,4.1E0,2.0002E2,-1.38430465E-2,2.1877852E-3,-1.3440867E-2],"split_indices":[1,0,1,0,0,0,0],"split_type":[0,0,0,0,0,0,0],"sum_hessian":[8.528287E2,3.4463757E2,5.081911E2,2.4783234E2,2.6035876E2,1.4495981E2,1.02872536E2],"tree_param":{"num_deleted":"0","num_feature":"4","num_nodes":"7","size_leaf_vector":"1"}},{"base_weights":[-0E0,1.3551269E-2,-9.1854423E-1,-4.2901203E-1,-1.379089E-2,-6.8188336E-4,-5.907067E-3],"categories":[],"categories_nodes":[],"categories_segments":[],"categories_sizes":[],"default_left":[0,0,0,0,0,0,0],"id":79,"left_children":[1,-1,3,5,-1,-1,-1],"loss_changes":[1.0597504E3,0E0,1.126055E2,1.4118324E1,0E0,0E0,0E0],"parents":[2147483647,0,0,2,2,3,3],"right_children":[2,-1,4,6,-1,-1,-1],"split_conditions":[3.5E0,1.3551269E-2,4.1E0,3.7E0,-1.379089E-2,-6.8188336E-4,-5.907067E-3],"split_indices":[1,0,1,1,0,0,0],"split_type":[0,0,0,0,0,0,0],"sum_hessian":[8.483713E2,3.4245804E2,5.0591324E2,2.471695E2,2.5874377E2,7.810408E1,1.6906541E2],"tree_param":{"num_deleted":"0","num_feature":"4","num_nodes":"7","size_leaf_vector":"1"}},{"base_weights":[-0E0,1.3502438E-2,-9.127036E-1,-4.251003E-1,-1.3739584E-2,2.2054126E-3,-1.3374145E-2],"categories":[],"categories_nodes":[],"categories_segments":[],"categories_sizes":[],"default_left":[0,0,0,0,0,0,0],"id":80,"left_children":[1,-1,3,5,-1,-1,-1],"loss_changes":[1.0442998E3,0E0,1.1194104E2,1.4736514E2,0E0,0E0,0E0],"parents":[2147483647,0,0,2,2,3,3],"right_children":[2,-1,4,6,-1,-1,-1],"split_conditions":[3.5E0,1.3502438E-2,4.1E0,2.0002E2,-1.3739584E-2,2.2054126E-3,-1.3374145E-2],"split_indices":[1,0,1,0,0,0,0],"split_type":[0,0,0,0,0,0,0],"sum_hessian":[8.4438696E2,3.4027597E2,5.0411096E2,2.4698442E2,2.5712653E2,1.4497528E2,1.02009155E2],"tree_param":{"num_deleted":"0","num_feature":"4","num_nodes":"7","size_leaf_vector":"1"}},{"base_weights":[-0E0,1.3454418E-2,-9.0777946E-1,-4.2204115E-1,-1.3689111E-2,-6.494137E-4,-5.8235764E-3],"categories":[],"categories_nodes":[],"categories_segments":[],"categories_sizes":[],"default_left":[0,0,0,0,0,0,0],"id":81,"left_children":[1,-1,3,5,-1,-1,-1],"loss_changes":[1.029508E3,0E0,1.1097803E2,1.3807106E1,0E0,0E0,0E0],"parents":[2147483647,0,0,2,2,3,3],"right_children":[2,-1,4,6,-1,-1,-1],"split_conditions":[3.5E0,1.3454418E-2,4.1E0,3.7E0,-1.3689111E-2,-6.494137E-4,-5.8235764E-3],"split_indices":[1,0,1,1,0,0,0],"split_type":[0,0,0,0,0,0,0],"sum_hessian":[8.399199E2,3.3809177E2,5.0182816E2,2.4632065E2,2.5550749E2,7.7939476E1,1.6838116E2],"tree_param":{"num_deleted":"0","num_feature":"4","num_nodes":"7","size_leaf_vector":"1"}},{"base_weights":[-0E0,1.3407197E-2,-9.0203965E-1,-4.1819376E-1,-1.363945E-2,-6.430773E-4,-5.77201E-3],"categories":[],"categories_nodes":[],"categories_segments":[],"categories_sizes":[],"default_left":[0,0,0,0,0,0,0],"id":82,"left_children":[1,-1,3,5,-1,-1,-1],"loss_changes":[1.0145743E3,0E0,1.1033923E2,1.3558155E1,0E0,0E0,0E0],"parents":[2147483647,0,0,2,2,3,3],"right_children":[2,-1,4,6,-1,-1,-1],"split_conditions":[3.5E0,1.3407197E-2,4.1E0,3.7E0,-1.363945E-2,-6.430773E-4,-5.77201E-3],"split_indices":[1,0,1,1,0,0,0],"split_type":[0,0,0,0,0,0,0],"sum_hessian":[8.359291E2,3.3590604E2,5.0002307E2,2.4613605E2,2.5388701E2,7.7935104E1,1.6820096E2],"tree_param":{"num_deleted":"0","num_feature":"4","num_nodes":"7","size_leaf_vector":"1"}},{"base_weights":[-0E0,5.580154E-1,-1.2928853E-2,1.2847864E-2,4.2885706E-1,4.5929053E-3,2.7043223E-3],"categories":[],"categories_nodes":[],"categories_segments":[],"categories_sizes":[],"default_left":[0,0,0,0,0,0,0],"id":83,"left_children":[1,3,-1,-1,5,-1,-1],"loss_changes":[6.023963E2,5.3060196E1,0E0,0E0,1.850029E0,0E0,0E0],"parents":[2147483647,0,0,1,1,4,4],"right_children":[2,4,-1,-1,6,-1,-1],"split_conditions":[2.0002E2,5.031E1,-1.2928853E-2,1.2847864E-2,1.7237E2,4.5929053E-3,2.7043223E-3],"split_indices":[0,0,0,0,0,0,0],"split_type":[0,0,0,0,0,0,0],"sum_hessian":[8.319358E2,5.8169324E2,2.5024255E2,8.516718E1,4.9652606E2,4.1147653E2,8.504952E1],"tree_param":{"num_deleted":"0","num_feature":"4","num_nodes":"7","size_leaf_vector":"1"}},{"base_weights":[-0E0,1.3342181E-2,-8.953806E-1,-4.1347656E-1,-1.3584384E-2,-6.319428E-4,-5.711203E-3],"categories":[],"categories_nodes":[],"categories_segments":[],"categories_sizes":[],"default_left":[0,0,0,0,0,0,0],"id":84,"left_children":[1,-1,3,5,-1,-1,-1],"loss_changes":[9.941724E2,0E0,1.0940369E2,1.325296E1,0E0,0E0,0E0],"parents":[2147483647,0,0,2,2,3,3],"right_children":[2,-1,4,6,-1,-1,-1],"split_conditions":[3.5E0,1.3342181E-2,4.1E0,3.7E0,-1.3584384E-2,-6.319428E-4,-5.711203E-3],"split_indices":[1,0,1,1,0,0,0],"split_type":[0,0,0,0,0,0,0],"sum_hessian":[8.292096E2,3.3269263E2,4.9651694E2,2.452277E2,2.5128925E2,7.774729E1,1.6748042E2],"tree_param":{"num_deleted":"0","num_feature":"4","num_nodes":"7","size_leaf_vector":"1"}},{"base_weights":[-0E0,1.3296806E-2,-8.8975215E-1,-4.097085E-1,-1.3536494E-2,-6.2577624E-4,-5.660655E-3],"categories":[],"categories_nodes":[],"categories_segments":[],"categories_sizes":[],"default_left":[0,0,0,0,0,0,0],"id":85,"left_children":[1,-1,3,5,-1,-1,-1],"loss_changes":[9.798347E2,0E0,1.087887E2,1.3014027E1,0E0,0E0,0E0],"parents":[2147483647,0,0,2,2,3,3],"right_children":[2,-1,4,6,-1,-1,-1],"split_conditions":[3.5E0,1.3296806E-2,4.1E0,3.7E0,-1.3536494E-2,-6.2577624E-4,-5.660655E-3],"split_indices":[1,0,1,1,0,0,0],"split_type":[0,0,0,0,0,0,0],"sum_hessian":[8.252192E2,3.305057E2,4.9471347E2,2.4504358E2,2.4966988E2,7.774305E1,1.6730054E2],"tree_param":{"num_deleted":"0","num_feature":"4","num_nodes":"7","size_leaf_vector":"1"}},{"base_weights":[-0E0,1.3252171E-2,-8.841722E-1,-4.059754E-1,-1.3489364E-2,-6.196703E-4,-5.610565E-3],"categories":[],"categories_nodes":[],"categories_segments":[],"categories_sizes":[],"default_left":[0,0,0,0,0,0,0],"id":86,"left_children":[1,-1,3,5,-1,-1,-1],"loss_changes":[9.6573773E2,0E0,1.08183014E2,1.2779411E1,0E0,0E0,0E0],"parents":[2147483647,0,0,2,2,3,3],"right_children":[2,-1,4,6,-1,-1,-1],"split_conditions":[3.5E0,1.3252171E-2,4.1E0,3.7E0,-1.3489364E-2,-6.196703E-4,-5.610565E-3],"split_indices":[1,0,1,1,0,0,0],"split_type":[0,0,0,0,0,0,0],"sum_hessian":[8.2122833E2,3.283188E2,4.9290952E2,2.4485934E2,2.4805017E2,7.773884E1,1.6712051E2],"tree_param":{"num_deleted":"0","num_feature":"4","num_nodes":"7","size_leaf_vector":"1"}},{"base_weights":[-0E0,5.4823816E-1,-1.2811615E-2,1.2746464E-2,4.2032254E-1,4.5048026E-3,2.6345737E-3],"categories":[],"categories_nodes":[],"categories_segments":[],"categories_sizes":[],"default_left":[0,0,0,0,0,0,0],"id":87,"left_children":[1,3,-1,-1,5,-1,-1],"loss_changes":[5.761768E2,5.1720123E1,0E0,0E0,1.788765E0,0E0,0E0],"parents":[2147483647,0,0,1,1,4,4],"right_children":[2,4,-1,-1,6,-1,-1],"split_conditions":[2.0002E2,5.031E1,-1.2811615E-2,1.2746464E-2,1.7237E2,4.5048026E-3,2.6345737E-3],"split_indices":[0,0,0,0,0,0,0],"split_type":[0,0,0,0,0,0,0],"sum_hessian":[8.172378E2,5.728849E2,2.4435292E2,8.3177826E1,4.8970706E2,4.0571262E2,8.399443E1],"tree_param":{"num_deleted":"0","num_feature":"4","num_nodes":"7","size_leaf_vector":"1"}},{"base_weights":[-0E0,1.3190875E-2,-8.777208E-1,-4.013881E-1,-1.3437784E-2,-6.0871645E-4,-5.551447E-3],"categories":[],"categories_nodes":[],"categories_segments":[],"categories_sizes":[],"default_left":[0,0,0,0,0,0,0],"id":88,"left_children":[1,-1,3,5,-1,-1,-1],"loss_changes":[9.465093E2,0E0,1.07302765E2,1.2492519E1,0E0,0E0,0E0],"parents":[2147483647,0,0,2,2,3,3],"right_children":[2,-1,4,6,-1,-1,-1],"split_conditions":[3.5E0,1.3190875E-2,4.1E0,3.7E0,-1.3437784E-2,-6.0871645E-4,-5.551447E-3],"split_indices":[1,0,1,1,0,0,0],"split_type":[0,0,0,0,0,0,0],"sum_hessian":[8.1453735E2,3.2511325E2,4.8942413E2,2.4395522E2,2.454689E2,7.755161E1,1.6640361E2],"tree_param":{"num_deleted":"0","num_feature":"4","num_nodes":"7","size_leaf_vector":"1"}},{"base_weights":[-0E0,1.314795E-2,-8.7224394E-1,-3.9773154E-1,-1.3392288E-2,-6.0277636E-4,-5.5023357E-3],"categories":[],"categories_nodes":[],"categories_segments":[],"categories_sizes":[],"default_left":[0,0,0,0,0,0,0],"id":89,"left_children":[1,-1,3,5,-1,-1,-1],"loss_changes":[9.329661E2,0E0,1.0671777E2,1.2267277E1,0E0,0E0,0E0],"parents":[2147483647,0,0,2,2,3,3],"right_children":[2,-1,4,6,-1,-1,-1],"split_conditions":[3.5E0,1.314795E-2,4.1E0,3.7E0,-1.3392288E-2,-6.0277636E-4,-5.5023357E-3],"split_indices":[1,0,1,1,0,0,0],"split_type":[0,0,0,0,0,0,0],"sum_hessian":[8.105535E2,3.2292874E2,4.8762476E2,2.437718E2,2.4385295E2,7.754753E1,1.6622427E2],"tree_param":{"num_deleted":"0","num_feature":"4","num_nodes":"7","size_leaf_vector":"1"}},{"base_weights":[-0E0,1.3105708E-2,-8.668122E-1,-3.9410856E-1,-1.3347494E-2,2.3425813E-3,-1.3127506E-2],"categories":[],"categories_nodes":[],"categories_segments":[],"categories_sizes":[],"default_left":[0,0,0,0,0,0,0],"id":90,"left_children":[1,-1,3,5,-1,-1,-1],"loss_changes":[9.196471E2,0E0,1.0614093E2,1.4247636E2,0E0,0E0,0E0],"parents":[2147483647,0,0,2,2,3,3],"right_children":[2,-1,4,6,-1,-1,-1],"split_conditions":[3.5E0,1.3105708E-2,4.1E0,2.0002E2,-1.3347494E-2,2.3425813E-3,-1.3127506E-2],"split_indices":[1,0,1,0,0,0,0],"split_type":[0,0,0,0,0,0,0],"sum_hessian":[8.065719E2,3.2074576E2,4.8582614E2,2.4358841E2,2.4223775E2,1.4498763E2,9.860078E1],"tree_param":{"num_deleted":"0","num_feature":"4","num_nodes":"7","size_leaf_vector":"1"}},{"base_weights":[-0E0,1.306413E-2,-8.622805E-1,-3.9129063E-1,-1.3303387E-2,2.3197455E-3,-1.3082532E-2],"categories":[],"categories_nodes":[],"categories_segments":[],"categories_sizes":[],"default_left":[0,0,0,0,0,0,0],"id":91,"left_children":[1,-1,3,5,-1,-1,-1],"loss_changes":[9.069053E2,0E0,1.05287476E2,1.4068448E2,0E0,0E0,0E0],"parents":[2147483647,0,0,2,2,3,3],"right_children":[2,-1,4,6,-1,-1,-1],"split_conditions":[3.5E0,1.306413E-2,4.1E0,2.0002E2,-1.3303387E-2,2.3197455E-3,-1.3082532E-2],"split_indices":[1,0,1,0,0,0,0],"split_type":[0,0,0,0,0,0,0],"sum_hessian":[8.0211224E2,3.1856445E2,4.8354776E2,2.4292422E2,2.4062354E2,1.4496552E2,9.79587E1],"tree_param":{"num_deleted":"0","num_feature":"4","num_nodes":"7","size_leaf_vector":"1"}},{"base_weights":[-0E0,1.3023212E-2,-8.577899E-1,-3.8849604E-1,-1.3259953E-2,2.297138E-3,-1.3038259E-2],"categories":[],"categories_nodes":[],"categories_segments":[],"categories_sizes":[],"default_left":[0,0,0,0,0,0,0],"id":92,"left_children":[1,-1,3,5,-1,-1,-1],"loss_changes":[8.9437085E2,0E0,1.04447235E2,1.3892183E2,0E0,0E0,0E0],"parents":[2147483647,0,0,2,2,3,3],"right_children":[2,-1,4,6,-1,-1,-1],"split_conditions":[3.5E0,1.3023212E-2,4.1E0,2.0002E2,-1.3259953E-2,2.297138E-3,-1.3038259E-2],"split_indices":[1,0,1,0,0,0,0],"split_type":[0,0,0,0,0,0,0],"sum_hessian":[7.9765607E2,3.1638544E2,4.812706E2,2.4226001E2,2.390106E2,1.4494327E2,9.731674E1],"tree_param":{"num_deleted":"0","num_feature":"4","num_nodes":"7","size_leaf_vector":"1"}},{"base_weights":[-0E0,1.2982931E-2,-8.533395E-1,-3.8572472E-1,-1.3217178E-2,2.274751E-3,-1.2994669E-2],"categories":[],"categories_nodes":[],"categories_segments":[],"categories_sizes":[],"default_left":[0,0,0,0,0,0,0],"id":93,"left_children":[1,-1,3,5,-1,-1,-1],"loss_changes":[8.820388E2,0E0,1.0361984E2,1.371876E2,0E0,0E0,0E0],"parents":[2147483647,0,0,2,2,3,3],"right_children":[2,-1,4,6,-1,-1,-1],"split_conditions":[3.5E0,1.2982931E-2,4.1E0,2.0002E2,-1.3217178E-2,2.274751E-3,-1.2994669E-2],"split_indices":[1,0,1,0,0,0,0],"split_type":[0,0,0,0,0,0,0],"sum_hessian":[7.93204E2,3.1420892E2,4.7899506E2,2.4159586E2,2.3739922E2,1.4492085E2,9.6675E1],"tree_param":{"num_deleted":"0","num_feature":"4","num_nodes":"7","size_leaf_vector":"1"}},{"base_weights":[-0E0,1.2943278E-2,-8.4892833E-1,-3.8297603E-1,-1.3175047E-2,2.2525855E-3,-1.2951747E-2],"categories":[],"categories_nodes":[],"categories_segments":[],"categories_sizes":[],"default_left":[0,0,0,0,0,0,0],"id":94,"left_children":[1,-1,3,5,-1,-1,-1],"loss_changes":[8.699054E2,0E0,1.02805084E2,1.3548125E2,0E0,0E0,0E0],"parents":[2147483647,0,0,2,2,3,3],"right_children":[2,-1,4,6,-1,-1,-1],"split_conditions":[3.5E0,1.2943278E-2,4.1E0,2.0002E2,-1.3175047E-2,2.2525855E-3,-1.2951747E-2],"split_indices":[1,0,1,0,0,0,0],"split_type":[0,0,0,0,0,0,0],"sum_hessian":[7.887569E2,3.120353E2,4.7672156E2,2.4093192E2,2.3578963E2,1.448983E2,9.603362E1],"tree_param":{"num_deleted":"0","num_feature":"4","num_nodes":"7","size_leaf_vector":"1"}},{"base_weights":[-0E0,1.2904238E-2,-8.445556E-1,-3.8024965E-1,-1.3133551E-2,2.230638E-3,-1.2909477E-2],"categories":[],"categories_nodes":[],"categories_segments":[],"categories_sizes":[],"default_left":[0,0,0,0,0,0,0],"id":95,"left_children":[1,-1,3,5,-1,-1,-1],"loss_changes":[8.579662E2,0E0,1.020025E2,1.338022E2,0E0,0E0,0E0],"parents":[2147483647,0,0,2,2,3,3],"right_children":[2,-1,4,6,-1,-1,-1],"split_conditions":[3.5E0,1.2904238E-2,4.1E0,2.0002E2,-1.3133551E-2,2.230638E-3,-1.2909477E-2],"split_indices":[1,0,1,0,0,0,0],"split_type":[0,0,0,0,0,0,0],"sum_hessian":[7.8431537E2,3.0986496E2,4.7445044E2,2.4026833E2,2.341821E2,1.4487563E2,9.5392715E1],"tree_param":{"num_deleted":"0","num_feature":"4","num_nodes":"7","size_leaf_vector":"1"}},{"base_weights":[-0E0,1.28658E-2,-8.402204E-1,-3.7754536E-1,-1.3092672E-2,2.2089046E-3,-1.28678465E-2],"categories":[],"categories_nodes":[],"categories_segments":[],"categories_sizes":[],"default_left":[0,0,0,0,0,0,0],"id":96,"left_children":[1,-1,3,5,-1,-1,-1],"loss_changes":[8.462175E2,0E0,1.0121188E2,1.3214978E2,0E0,0E0,0E0],"parents":[2147483647,0,0,2,2,3,3],"right_children":[2,-1,4,6,-1,-1,-1],"split_conditions":[3.5E0,1.28658E-2,4.1E0,2.0002E2,-1.3092672E-2,2.2089046E-3,-1.28678465E-2],"split_indices":[1,0,1,0,0,0,0],"split_type":[0,0,0,0,0,0,0],"sum_hessian":[7.798802E2,3.0769812E2,4.7218207E2,2.396052E2,2.3257686E2,1.4485281E2,9.475238E1],"tree_param":{"num_deleted":"0","num_feature":"4","num_nodes":"7","size_leaf_vector":"1"}},{"base_weights":[-0E0,1.2827951E-2,-8.359217E-1,-3.7486246E-1,-1.3052401E-2,-4.341307E-4,-5.2582514E-3],"categories":[],"categories_nodes":[],"categories_segments":[],"categories_sizes":[],"default_left":[0,0,0,0,0,0,0],"id":97,"left_children":[1,-1,3,5,-1,-1,-1],"loss_changes":[8.3465564E2,0E0,1.0043286E2,1.1712048E1,0E0,0E0,0E0],"parents":[2147483647,0,0,2,2,3,3],"right_children":[2,-1,4,6,-1,-1,-1],"split_conditions":[3.5E0,1.2827951E-2,4.1E0,3.7E0,-1.3052401E-2,-4.341307E-4,-5.2582514E-3],"split_indices":[1,0,1,1,0,0,0],"split_type":[0,0,0,0,0,0,0],"sum_hessian":[7.75452E2,3.0553522E2,4.699168E2,2.3894263E2,2.3097418E2,7.641391E1,1.6252872E2],"tree_param":{"num_deleted":"0","num_feature":"4","num_nodes":"7","size_leaf_vector":"1"}},{"base_weights":[-0E0,1.2790677E-2,-8.307949E-1,-3.7144274E-1,-1.3012724E-2,-4.2988945E-4,-5.211653E-3],"categories":[],"categories_nodes":[],"categories_segments":[],"categories_sizes":[],"default_left":[0,0,0,0,0,0,0],"id":98,"left_children":[1,-1,3,5,-1,-1,-1],"loss_changes":[8.229385E2,0E0,9.993518E1,1.1499935E1,0E0,0E0,0E0],"parents":[2147483647,0,0,2,2,3,3],"right_children":[2,-1,4,6,-1,-1,-1],"split_conditions":[3.5E0,1.2790677E-2,4.1E0,3.7E0,-1.3012724E-2,-4.2988945E-4,-5.211653E-3],"split_indices":[1,0,1,1,0,0,0],"split_type":[0,0,0,0,0,0,0],"sum_hessian":[7.715182E2,3.0337653E2,4.6814166E2,2.3876741E2,2.2937425E2,7.641101E1,1.6235638E2],"tree_param":{"num_deleted":"0","num_feature":"4","num_nodes":"7","size_leaf_vector":"1"}},{"base_weights":[-0E0,1.2753969E-2,-8.2570624E-1,-3.6805433E-1,-1.2973629E-2,-4.2568884E-4,-5.1654684E-3],"categories":[],"categories_nodes":[],"categories_segments":[],"categories_sizes":[],"default_left":[0,0,0,0,0,0,0],"id":99,"left_children":[1,-1,3,5,-1,-1,-1],"loss_changes":[8.1140857E2,0E0,9.944287E1,1.1291637E1,0E0,0E0,0E0],"parents":[2147483647,0,0,2,2,3,3],"right_children":[2,-1,4,6,-1,-1,-1],"split_conditions":[3.5E0,1.2753969E-2,4.1E0,3.7E0,-1.2973629E-2,-4.2568884E-4,-5.1654684E-3],"split_indices":[1,0,1,1,0,0,0],"split_type":[0,0,0,0,0,0,0],"sum_hessian":[7.67592E2,3.012223E2,4.6636972E2,2.385924E2,2.2777731E2,7.640814E1,1.6218427E2],"tree_param":{"num_deleted":"0","num_feature":"4","num_nodes":"7","size_leaf_vector":"1"}},{"base_weights":[-0E0,5.155133E-1,-1.2414278E-2,1.2459543E-2,3.8966513E-1,4.1981204E-3,2.335892E-3],"categories":[],"categories_nodes":[],"categories_segments":[],"categories_sizes":[],"default_left":[0,0,0,0,0,0,0],"id":100,"left_children":[1,3,-1,-1,5,-1,-1],"loss_changes":[4.9082846E2,4.823857E1,0E0,0E0,1.7129593E0,0E0,0E0],"parents":[2147483647,0,0,1,1,4,4],"right_children":[2,4,-1,-1,6,-1,-1],"split_conditions":[2.0002E2,5.031E1,-1.2414278E-2,1.2459543E-2,1.7237E2,4.1981204E-3,2.335892E-3],"split_indices":[0,0,0,0,0,0,0],"split_type":[0,0,0,0,0,0,0],"sum_hessian":[7.636742E2,5.4008075E2,2.2359346E2,7.68292E1,4.6325153E2,3.8344815E2,7.980338E1],"tree_param":{"num_deleted":"0","num_feature":"4","num_nodes":"7","size_leaf_vector":"1"}},{"base_weights":[-0E0,5.113071E-1,-1.2382934E-2,1.2423415E-2,3.861191E-1,4.160132E-3,2.3137978E-3],"categories":[],"categories_nodes":[],"categories_segments":[],"categories_sizes":[],"default_left":[0,0,0,0,0,0,0],"id":101,"left_children":[1,3,-1,-1,5,-1,-1],"loss_changes":[4.8394806E2,4.794557E1,0E0,0E0,1.6800003E0,0E0,0E0],"parents":[2147483647,0,0,1,1,4,4],"right_children":[2,4,-1,-1,6,-1,-1],"split_conditions":[2.0002E2,5.031E1,-1.2382934E-2,1.2423415E-2,1.7237E2,4.160132E-3,2.3137978E-3],"split_indices":[0,0,0,0,0,0,0],"split_type":[0,0,0,0,0,0,0],"sum_hessian":[7.6108875E2,5.391588E2,2.2192996E2,7.628917E1,4.6286963E2,3.830954E2,7.977424E1],"tree_param":{"num_deleted":"0","num_feature":"4","num_nodes":"7","size_leaf_vector":"1"}},{"base_weights":[-0E0,1.269031E-2,-8.1917626E-1,-3.6323804E-1,-1.2928795E-2,-4.1274863E-4,-5.104767E-3],"categories":[],"categories_nodes":[],"categories_segments":[],"categories_sizes":[],"default_left":[0,0,0,0,0,0,0],"id":102,"left_children":[1,-1,3,5,-1,-1,-1],"loss_changes":[7.915427E2,0E0,9.844083E1,1.0998165E1,0E0,0E0,0E0],"parents":[2147483647,0,0,2,2,3,3],"right_children":[2,-1,4,6,-1,-1,-1],"split_conditions":[3.5E0,1.269031E-2,4.1E0,3.7E0,-1.2928795E-2,-4.1274863E-4,-5.104767E-3],"split_indices":[1,0,1,1,0,0,0],"split_type":[0,0,0,0,0,0,0],"sum_hessian":[7.5851306E2,2.971295E2,4.613836E2,2.3698848E2,2.2439511E2,7.603688E1,1.6095161E2],"tree_param":{"num_deleted":"0","num_feature":"4","num_nodes":"7","size_leaf_vector":"1"}},{"base_weights":[-0E0,5.05831E-1,-1.2332674E-2,1.237558E-2,3.814066E-1,4.1106986E-3,2.2792309E-3],"categories":[],"categories_nodes":[],"categories_segments":[],"categories_sizes":[],"default_left":[0,0,0,0,0,0,0],"id":103,"left_children":[1,3,-1,-1,5,-1,-1],"loss_changes":[4.727879E2,4.7385376E1,0E0,0E0,1.6425629E0,0E0,0E0],"parents":[2147483647,0,0,1,1,4,4],"right_children":[2,4,-1,-1,6,-1,-1],"split_conditions":[2.0002E2,5.031E1,-1.2332674E-2,1.237558E-2,1.7237E2,4.1106986E-3,2.2792309E-3],"split_indices":[0,0,0,0,0,0,0],"split_type":[0,0,0,0,0,0,0],"sum_hessian":[7.5462115E2,5.3563043E2,2.1899069E2,7.5308876E1,4.6032156E2,3.809261E2,7.9395485E1],"tree_param":{"num_deleted":"0","num_feature":"4","num_nodes":"7","size_leaf_vector":"1"}},{"base_weights":[-0E0,5.017009E-1,-1.2302486E-2,1.23405475E-2,3.7793267E-1,4.073463E-3,2.2576626E-3],"categories":[],"categories_nodes":[],"categories_segments":[],"categories_sizes":[],"default_left":[0,0,0,0,0,0,0],"id":104,"left_children":[1,3,-1,-1,5,-1,-1],"loss_changes":[4.661928E2,4.7098587E1,0E0,0E0,1.610817E0,0E0,0E0],"parents":[2147483647,0,0,1,1,4,4],"right_children":[2,4,-1,-1,6,-1,-1],"split_conditions":[2.0002E2,5.031E1,-1.2302486E-2,1.23405475E-2,1.7237E2,4.073463E-3,2.2576626E-3],"split_indices":[0,0,0,0,0,0,0],"split_type":[0,0,0,0,0,0,0],"sum_hessian":[7.520654E2,5.347207E2,2.1734468E2,7.477437E1,4.5994635E2,3.805794E2,7.936695E1],"tree_param":{"num_deleted":"0","num_feature":"4","num_nodes":"7","size_leaf_vector":"1"}},{"base_weights":[-0E0,1.26289185E-2,-8.1281394E-1,-3.585218E-1,-1.2886474E-2,-3.999797E-4,-5.045368E-3],"categories":[],"categories_nodes":[],"categories_segments":[],"categories_sizes":[],"default_left":[0,0,0,0,0,0,0],"id":105,"left_children":[1,-1,3,5,-1,-1,-1],"loss_changes":[7.723708E2,0E0,9.7474884E1,1.0714954E1,0E0,0E0,0E0],"parents":[2147483647,0,0,2,2,3,3],"right_children":[2,-1,4,6,-1,-1,-1],"split_conditions":[3.5E0,1.26289185E-2,4.1E0,3.7E0,-1.2886474E-2,-3.999797E-4,-5.045368E-3],"split_indices":[1,0,1,1,0,0,0],"split_type":[0,0,0,0,0,0,0],"sum_hessian":[7.495199E2,2.930809E2,4.56439E2,2.353881E2,2.210509E2,7.566476E1,1.5972334E2],"tree_param":{"num_deleted":"0","num_feature":"4","num_nodes":"7","size_leaf_vector":"1"}},{"base_weights":[-0E0,1.2594653E-2,-8.07856E-1,-3.55248E-1,-1.2849477E-2,2.1663185E-3,-1.2616475E-2],"categories":[],"categories_nodes":[],"categories_segments":[],"categories_sizes":[],"default_left":[0,0,0,0,0,0,0],"id":106,"left_children":[1,-1,3,5,-1,-1,-1],"loss_changes":[7.6163763E2,0E0,9.700528E1,1.23636024E2,0E0,0E0,0E0],"parents":[2147483647,0,0,2,2,3,3],"right_children":[2,-1,4,6,-1,-1,-1],"split_conditions":[3.5E0,1.2594653E-2,4.1E0,2.0002E2,-1.2849477E-2,2.1663185E-3,-1.2616475E-2],"split_indices":[1,0,1,0,0,0,0],"split_type":[0,0,0,0,0,0,0],"sum_hessian":[7.456555E2,2.9095416E2,4.547014E2,2.352187E2,2.1948267E2,1.4458484E2,9.0633865E1],"tree_param":{"num_deleted":"0","num_feature":"4","num_nodes":"7","size_leaf_vector":"1"}},{"base_weights":[-0E0,4.936474E-1,-1.2224029E-2,1.2275315E-2,3.7068716E-1,3.9991695E-3,2.1960752E-3],"categories":[],"categories_nodes":[],"categories_segments":[],"categories_sizes":[],"default_left":[0,0,0,0,0,0,0],"id":107,"left_children":[1,3,-1,-1,5,-1,-1],"loss_changes":[4.4930957E2,4.6351242E1,0E0,0E0,1.5754662E0,0E0,0E0],"parents":[2147483647,0,0,1,1,4,4],"right_children":[2,4,-1,-1,6,-1,-1],"split_conditions":[2.0002E2,5.031E1,-1.2224029E-2,1.2275315E-2,1.7237E2,3.9991695E-3,2.1960752E-3],"split_indices":[0,0,0,0,0,0,0],"split_type":[0,0,0,0,0,0,0],"sum_hessian":[7.413151E2,5.285715E2,2.1274367E2,7.33347E1,4.5523676E2,3.7659558E2,7.8641174E1],"tree_param":{"num_deleted":"0","num_feature":"4","num_nodes":"7","size_leaf_vector":"1"}},{"base_weights":[-0E0,1.2548532E-2,-8.0317163E-1,-3.5207137E-1,-1.2811398E-2,2.0994528E-3,-1.254343E-2],"categories":[],"categories_nodes":[],"categories_segments":[],"categories_sizes":[],"default_left":[0,0,0,0,0,0,0],"id":108,"left_children":[1,-1,3,5,-1,-1,-1],"loss_changes":[7.47541E2,0E0,9.605066E1,1.2026168E2,0E0,0E0,0E0],"parents":[2147483647,0,0,2,2,3,3],"right_children":[2,-1,4,6,-1,-1,-1],"split_conditions":[3.5E0,1.2548532E-2,4.1E0,2.0002E2,-1.2811398E-2,2.0994528E-3,-1.254343E-2],"split_indices":[1,0,1,0,0,0,0],"split_type":[0,0,0,0,0,0,0],"sum_hessian":[7.3880255E2,2.8789725E2,4.509053E2,2.3385086E2,2.1705444E2,1.44463E2,8.938785E1],"tree_param":{"num_deleted":"0","num_feature":"4","num_nodes":"7","size_leaf_vector":"1"}},{"base_weights":[-0E0,4.869671E-1,-1.2165997E-2,1.2222955E-2,3.6471182E-1,3.9373767E-3,2.1478655E-3],"categories":[],"categories_nodes":[],"categories_segments":[],"categories_sizes":[],"default_left":[0,0,0,0,0,0,0],"id":109,"left_children":[1,3,-1,-1,5,-1,-1],"loss_changes":[4.3708005E2,4.5872757E1,0E0,0E0,1.5454292E0,0E0,0E0],"parents":[2147483647,0,0,1,1,4,4],"right_children":[2,4,-1,-1,6,-1,-1],"split_conditions":[2.0002E2,5.031E1,-1.2165997E-2,1.2222955E-2,1.7237E2,3.9373767E-3,2.1478655E-3],"split_indices":[0,0,0,0,0,0,0],"split_type":[0,0,0,0,0,0,0],"sum_hessian":[7.3448334E2,5.2504193E2,2.0944142E2,7.234171E1,4.5270023E2,3.744346E2,7.826564E1],"tree_param":{"num_deleted":"0","num_feature":"4","num_nodes":"7","size_leaf_vector":"1"}},{"base_weights":[-0E0,1.250351E-2,-7.9856294E-1,-3.489507E-1,-1.2774314E-2,-3.4450914E-4,-4.93754E-3],"categories":[],"categories_nodes":[],"categories_segments":[],"categories_sizes":[],"default_left":[0,0,0,0,0,0,0],"id":110,"left_children":[1,-1,3,5,-1,-1,-1],"loss_changes":[7.3378625E2,0E0,9.511084E1,1.0366255E1,0E0,0E0,0E0],"parents":[2147483647,0,0,2,2,3,3],"right_children":[2,-1,4,6,-1,-1,-1],"split_conditions":[3.5E0,1.250351E-2,4.1E0,3.7E0,-1.2774314E-2,-3.4450914E-4,-4.93754E-3],"split_indices":[1,0,1,1,0,0,0],"split_type":[0,0,0,0,0,0,0],"sum_hessian":[7.319941E2,2.848624E2,4.4713168E2,2.3248622E2,2.1464545E2,7.4969345E1,1.5751688E2],"tree_param":{"num_deleted":"0","num_feature":"4","num_nodes":"7","size_leaf_vector":"1"}},{"base_weights":[-0E0,4.817926E-1,-1.2120984E-2,1.2179988E-2,3.6027345E-1,3.890799E-3,2.1153681E-3],"categories":[],"categories_nodes":[],"categories_segments":[],"categories_sizes":[],"default_left":[0,0,0,0,0,0,0],"id":111,"left_children":[1,3,-1,-1,5,-1,-1],"loss_changes":[4.2715753E2,4.534932E1,0E0,0E0,1.5115204E0,0E0,0E0],"parents":[2147483647,0,0,1,1,4,4],"right_children":[2,4,-1,-1,6,-1,-1],"split_conditions":[2.0002E2,5.031E1,-1.2120984E-2,1.2179988E-2,1.7237E2,3.890799E-3,2.1153681E-3],"split_indices":[0,0,0,0,0,0,0],"split_type":[0,0,0,0,0,0,0],"sum_hessian":[7.2818335E2,5.2158307E2,2.0660031E2,7.139535E1,4.501877E2,3.7229773E2,7.788998E1],"tree_param":{"num_deleted":"0","num_feature":"4","num_nodes":"7","size_leaf_vector":"1"}},{"base_weights":[-0E0,1.2459518E-2,-7.931476E-1,-3.4513977E-1,-1.2738205E-2,-3.3695356E-4,-4.8876284E-3],"categories":[],"categories_nodes":[],"categories_segments":[],"categories_sizes":[],"default_left":[0,0,0,0,0,0,0],"id":112,"left_children":[1,-1,3,5,-1,-1,-1],"loss_changes":[7.20042E2,0E0,9.443906E1,1.0141338E1,0E0,0E0,0E0],"parents":[2147483647,0,0,2,2,3,3],"right_children":[2,-1,4,6,-1,-1,-1],"split_conditions":[3.5E0,1.2459518E-2,4.1E0,3.7E0,-1.2738205E-2,-3.3695356E-4,-4.8876284E-3],"split_indices":[1,0,1,1,0,0,0],"split_type":[0,0,0,0,0,0,0],"sum_hessian":[7.2571643E2,2.8184796E2,4.4386847E2,2.3161273E2,2.1225574E2,7.4782104E1,1.5683063E2],"tree_param":{"num_deleted":"0","num_feature":"4","num_nodes":"7","size_leaf_vector":"1"}},{"base_weights":[-0E0,1.2427739E-2,-7.883281E-1,-3.4198302E-1,-1.2703472E-2,2.0525155E-3,-1.2418003E-2],"categories":[],"categories_nodes":[],"categories_segments":[],"categories_sizes":[],"default_left":[0,0,0,0,0,0,0],"id":113,"left_children":[1,-1,3,5,-1,-1,-1],"loss_changes":[7.1012195E2,0E0,9.399643E1,1.15608086E2,0E0,0E0,0E0],"parents":[2147483647,0,0,2,2,3,3],"right_children":[2,-1,4,6,-1,-1,-1],"split_conditions":[3.5E0,1.2427739E-2,4.1E0,2.0002E2,-1.2703472E-2,2.0525155E-3,-1.2418003E-2],"split_indices":[1,0,1,0,0,0,0],"split_type":[0,0,0,0,0,0,0],"sum_hessian":[7.2192737E2,2.797573E2,4.421701E2,2.3145062E2,2.107195E2,1.442969E2,8.71537E1],"tree_param":{"num_deleted":"0","num_feature":"4","num_nodes":"7","size_leaf_vector":"1"}},{"base_weights":[-0E0,1.2396414E-2,-7.8440493E-1,-3.3956814E-1,-1.2669219E-2,-3.1266405E-4,-4.8199464E-3],"categories":[],"categories_nodes":[],"categories_segments":[],"categories_sizes":[],"default_left":[0,0,0,0,0,0,0],"id":114,"left_children":[1,-1,3,5,-1,-1,-1],"loss_changes":[7.006553E2,0E0,9.331378E1,9.921295E0,0E0,0E0,0E0],"parents":[2147483647,0,0,2,2,3,3],"right_children":[2,-1,4,6,-1,-1,-1],"split_conditions":[3.5E0,1.2396414E-2,4.1E0,3.7E0,-1.2669219E-2,-3.1266405E-4,-4.8199464E-3],"split_indices":[1,0,1,1,0,0,0],"split_type":[0,0,0,0,0,0,0],"sum_hessian":[7.176654E2,2.7767377E2,4.3999164E2,2.3080357E2,2.0918808E2,7.461943E1,1.5618413E2],"tree_param":{"num_deleted":"0","num_feature":"4","num_nodes":"7","size_leaf_vector":"1"}},{"base_weights":[-0E0,1.2365537E-2,-7.7964526E-1,-3.364608E-1,-1.2635431E-2,-3.0960696E-4,-4.777025E-3],"categories":[],"categories_nodes":[],"categories_segments":[],"categories_sizes":[],"default_left":[0,0,0,0,0,0,0],"id":115,"left_children":[1,-1,3,5,-1,-1,-1],"loss_changes":[6.910344E2,0E0,9.2881134E1,9.740318E0,0E0,0E0,0E0],"parents":[2147483647,0,0,2,2,3,3],"right_children":[2,-1,4,6,-1,-1,-1],"split_conditions":[3.5E0,1.2365537E-2,4.1E0,3.7E0,-1.2635431E-2,-3.0960696E-4,-4.777025E-3],"split_indices":[1,0,1,1,0,0,0],"split_type":[0,0,0,0,0,0,0],"sum_hessian":[7.1390265E2,2.7559766E2,4.38305E2,2.3064336E2,2.0766162E2,7.4617516E1,1.5602585E2],"tree_param":{"num_deleted":"0","num_feature":"4","num_nodes":"7","size_leaf_vector":"1"}},{"base_weights":[-0E0,1.2335097E-2,-7.7491677E-1,-3.3338165E-1,-1.2602106E-2,2.0943058E-3,-1.2364336E-2],"categories":[],"categories_nodes":[],"categories_segments":[],"categories_sizes":[],"default_left":[0,0,0,0,0,0,0],"id":116,"left_children":[1,-1,3,5,-1,-1,-1],"loss_changes":[6.8156104E2,0E0,9.245169E1,1.1461743E2,0E0,0E0,0E0],"parents":[2147483647,0,0,2,2,3,3],"right_children":[2,-1,4,6,-1,-1,-1],"split_conditions":[3.5E0,1.2335097E-2,4.1E0,2.0002E2,-1.2602106E-2,2.0943058E-3,-1.2364336E-2],"split_indices":[1,0,1,0,0,0,0],"split_type":[0,0,0,0,0,0,0],"sum_hessian":[7.1015295E2,2.7352902E2,4.3662393E2,2.3048364E2,2.0614029E2,1.4432831E2,8.615533E1],"tree_param":{"num_deleted":"0","num_feature":"4","num_nodes":"7","size_leaf_vector":"1"}},{"base_weights":[-0E0,1.2305089E-2,-7.7107793E-1,-3.310279E-1,-1.256923E-2,2.0739085E-3,-1.2330579E-2],"categories":[],"categories_nodes":[],"categories_segments":[],"categories_sizes":[],"default_left":[0,0,0,0,0,0,0],"id":117,"left_children":[1,-1,3,5,-1,-1,-1],"loss_changes":[6.725226E2,0E0,9.178934E1,1.13251144E2,0E0,0E0,0E0],"parents":[2147483647,0,0,2,2,3,3],"right_children":[2,-1,4,6,-1,-1,-1],"split_conditions":[3.5E0,1.2305089E-2,4.1E0,2.0002E2,-1.256923E-2,2.0739085E-3,-1.2330579E-2],"split_indices":[1,0,1,0,0,0,0],"split_type":[0,0,0,0,0,0,0],"sum_hessian":[7.0593207E2,2.7146817E2,4.344639E2,2.2983972E2,2.0462416E2,1.4430522E2,8.55345E1],"tree_param":{"num_deleted":"0","num_feature":"4","num_nodes":"7","size_leaf_vector":"1"}},{"base_weights":[-0E0,1.2275501E-2,-7.672649E-1,-3.2869112E-1,-1.2536799E-2,2.0537109E-3,-1.2297281E-2],"categories":[],"categories_nodes":[],"categories_segments":[],"categories_sizes":[],"default_left":[0,0,0,0,0,0,0],"id":118,"left_children":[1,-1,3,5,-1,-1,-1],"loss_changes":[6.63619E2,0E0,9.113512E1,1.1190501E2,0E0,0E0,0E0],"parents":[2147483647,0,0,2,2,3,3],"right_children":[2,-1,4,6,-1,-1,-1],"split_conditions":[3.5E0,1.2275501E-2,4.1E0,2.0002E2,-1.2536799E-2,2.0537109E-3,-1.2297281E-2],"split_indices":[1,0,1,0,0,0,0],"split_type":[0,0,0,0,0,0,0],"sum_hessian":[7.017262E2,2.694151E2,4.323111E2,2.2919768E2,2.0311343E2,1.4428207E2,8.49156E1],"tree_param":{"num_deleted":"0","num_feature":"4","num_nodes":"7","size_leaf_vector":"1"}},{"base_weights":[-0E0,1.2246328E-2,-7.6347715E-1,-3.2637104E-1,-1.2504803E-2,-2.456916E-4,-4.6642297E-3],"categories":[],"categories_nodes":[],"categories_segments":[],"categories_sizes":[],"default_left":[0,0,0,0,0,0,0],"id":119,"left_children":[1,-1,3,5,-1,-1,-1],"loss_changes":[6.548483E2,0E0,9.048895E1,9.461372E0,0E0,0E0,0E0],"parents":[2147483647,0,0,2,2,3,3],"right_children":[2,-1,4,6,-1,-1,-1],"split_conditions":[3.5E0,1.2246328E-2,4.1E0,3.7E0,-1.2504803E-2,-2.456916E-4,-4.6642297E-3],"split_indices":[1,0,1,1,0,0,0],"split_type":[0,0,0,0,0,0,0],"sum_hessian":[6.9753595E2,2.6737018E2,4.3016577E2,2.2855756E2,2.0160822E2,7.413505E1,1.544225E2],"tree_param":{"num_deleted":"0","num_feature":"4","num_nodes":"7","size_leaf_vector":"1"}},{"base_weights":[-0E0,1.2217562E-2,-7.5885695E-1,-3.2338017E-1,-1.2473234E-2,-2.4328688E-4,-4.6226038E-3],"categories":[],"categories_nodes":[],"categories_segments":[],"categories_sizes":[],"default_left":[0,0,0,0,0,0,0],"id":120,"left_children":[1,-1,3,5,-1,-1,-1],"loss_changes":[6.459272E2,0E0,9.007982E1,9.288235E0,0E0,0E0,0E0],"parents":[2147483647,0,0,2,2,3,3],"right_children":[2,-1,4,6,-1,-1,-1],"split_conditions":[3.5E0,1.2217562E-2,4.1E0,3.7E0,-1.2473234E-2,-2.4328688E-4,-4.6226038E-3],"split_indices":[1,0,1,1,0,0,0],"split_type":[0,0,0,0,0,0,0],"sum_hessian":[6.9384485E2,2.6533347E2,4.2851138E2,2.284028E2,2.0010858E2,7.4133575E1,1.5426923E2],"tree_param":{"num_deleted":"0","num_feature":"4","num_nodes":"7","size_leaf_vector":"1"}},{"base_weights":[-0E0,4.6245435E-1,-1.1909291E-2,1.204297E-2,3.4198868E-1,3.7093475E-3,1.9305164E-3],"categories":[],"categories_nodes":[],"categories_segments":[],"categories_sizes":[],"default_left":[0,0,0,0,0,0,0],"id":121,"left_children":[1,3,-1,-1,5,-1,-1],"loss_changes":[3.8199847E2,4.321125E1,0E0,0E0,1.4731941E0,0E0,0E0],"parents":[2147483647,0,0,1,1,4,4],"right_children":[2,4,-1,-1,6,-1,-1],"split_conditions":[2.0002E2,5.031E1,-1.1909291E-2,1.204297E-2,1.7237E2,3.7093475E-3,1.9305164E-3],"split_indices":[0,0,0,0,0,0,0],"split_type":[0,0,0,0,0,0,0],"sum_hessian":[6.901684E2,4.9759225E2,1.9257616E2,6.704915E1,4.305431E2,3.5579996E2,7.4743126E1],"tree_param":{"num_deleted":"0","num_feature":"4","num_nodes":"7","size_leaf_vector":"1"}},{"base_weights":[-0E0,1.2179329E-2,-7.537651E-1,-3.1986248E-1,-1.2441918E-2,-2.369072E-4,-4.576142E-3],"categories":[],"categories_nodes":[],"categories_segments":[],"categories_sizes":[],"default_left":[0,0,0,0,0,0,0],"id":122,"left_children":[1,-1,3,5,-1,-1,-1],"loss_changes":[6.3405756E2,0E0,8.9460556E1,9.088051E0,0E0,0E0,0E0],"parents":[2147483647,0,0,2,2,3,3],"right_children":[2,-1,4,6,-1,-1,-1],"split_conditions":[3.5E0,1.2179329E-2,4.1E0,3.7E0,-1.2441918E-2,-2.369072E-4,-4.576142E-3],"split_indices":[1,0,1,1,0,0,0],"split_type":[0,0,0,0,0,0,0],"sum_hessian":[6.8782324E2,2.624406E2,4.2538263E2,2.2755357E2,1.9782906E2,7.3948654E1,1.5360493E2],"tree_param":{"num_deleted":"0","num_feature":"4","num_nodes":"7","size_leaf_vector":"1"}},{"base_weights":[-0E0,1.2151494E-2,-7.492039E-1,-3.169296E-1,-1.2411228E-2,-2.3459051E-4,-4.53526E-3],"categories":[],"categories_nodes":[],"categories_segments":[],"categories_sizes":[],"default_left":[0,0,0,0,0,0,0],"id":123,"left_children":[1,-1,3,5,-1,-1,-1],"loss_changes":[6.254494E2,0E0,8.905722E1,8.921518E0,0E0,0E0,0E0],"parents":[2147483647,0,0,2,2,3,3],"right_children":[2,-1,4,6,-1,-1,-1],"split_conditions":[3.5E0,1.2151494E-2,4.1E0,3.7E0,-1.2411228E-2,-2.3459051E-4,-4.53526E-3],"split_indices":[1,0,1,1,0,0,0],"split_type":[0,0,0,0,0,0,0],"sum_hessian":[6.8417236E2,2.60425E2,4.2374738E2,2.2740117E2,1.9634619E2,7.394724E1,1.5345392E2],"tree_param":{"num_deleted":"0","num_feature":"4","num_nodes":"7","size_leaf_vector":"1"}},{"base_weights":[-0E0,1.2124038E-2,-7.4467057E-1,-3.1402326E-1,-1.2380942E-2,-2.3229567E-4,-4.4947336E-3],"categories":[],"categories_nodes":[],"categories_segments":[],"categories_sizes":[],"default_left":[0,0,0,0,0,0,0],"id":124,"left_children":[1,-1,3,5,-1,-1,-1],"loss_changes":[6.1697046E2,0E0,8.865614E1,8.757973E0,0E0,0E0,0E0],"parents":[2147483647,0,0,2,2,3,3],"right_children":[2,-1,4,6,-1,-1,-1],"split_conditions":[3.5E0,1.2124038E-2,4.1E0,3.7E0,-1.2380942E-2,-2.3229567E-4,-4.4947336E-3],"split_indices":[1,0,1,1,0,0,0],"split_type":[0,0,0,0,0,0,0],"sum_hessian":[6.805366E2,2.5841797E2,4.2211862E2,2.272493E2,1.9486931E2,7.3945854E1,1.5330345E2],"tree_param":{"num_deleted":"0","num_feature":"4","num_nodes":"7","size_leaf_vector":"1"}},{"base_weights":[-0E0,1.2096958E-2,-7.4016446E-1,-3.1114304E-1,-1.235105E-2,2.137243E-3,-1.2190288E-2],"categories":[],"categories_nodes":[],"categories_segments":[],"categories_sizes":[],"default_left":[0,0,0,0,0,0,0],"id":125,"left_children":[1,-1,3,5,-1,-1,-1],"loss_changes":[6.086188E2,0E0,8.825722E1,1.09824875E2,0E0,0E0,0E0],"parents":[2147483647,0,0,2,2,3,3],"right_children":[2,-1,4,6,-1,-1,-1],"split_conditions":[3.5E0,1.2096958E-2,4.1E0,2.0002E2,-1.235105E-2,2.137243E-3,-1.2190288E-2],"split_indices":[1,0,1,0,0,0,0],"split_type":[0,0,0,0,0,0,0],"sum_hessian":[6.7691644E2,2.5641995E2,4.2049652E2,2.2709799E2,1.9339851E2,1.4428186E2,8.281614E1],"tree_param":{"num_deleted":"0","num_feature":"4","num_nodes":"7","size_leaf_vector":"1"}},{"base_weights":[-0E0,1.2070245E-2,-7.365326E-1,-3.0894652E-1,-1.2321549E-2,2.1164233E-3,-1.2158886E-2],"categories":[],"categories_nodes":[],"categories_segments":[],"categories_sizes":[],"default_left":[0,0,0,0,0,0,0],"id":126,"left_children":[1,-1,3,5,-1,-1,-1],"loss_changes":[6.0065497E2,0E0,8.764403E1,1.0852072E2,0E0,0E0,0E0],"parents":[2147483647,0,0,2,2,3,3],"right_children":[2,-1,4,6,-1,-1,-1],"split_conditions":[3.5E0,1.2070245E-2,4.1E0,2.0002E2,-1.2321549E-2,2.1164233E-3,-1.2158886E-2],"split_indices":[1,0,1,0,0,0,0],"split_type":[0,0,0,0,0,0,0],"sum_hessian":[6.728304E2,2.5443082E2,4.1839954E2,2.2646564E2,1.9193391E2,1.4425899E2,8.220665E1],"tree_param":{"num_deleted":"0","num_feature":"4","num_nodes":"7","size_leaf_vector":"1"}},{"base_weights":[-0E0,1.2043893E-2,-7.3292273E-1,-3.067653E-1,-1.2292428E-2,-1.9213418E-4,-4.410599E-3],"categories":[],"categories_nodes":[],"categories_segments":[],"categories_sizes":[],"default_left":[0,0,0,0,0,0,0],"id":127,"left_children":[1,-1,3,5,-1,-1,-1],"loss_changes":[5.9280725E2,0E0,8.703778E1,8.536093E0,0E0,0E0,0E0],"parents":[2147483647,0,0,2,2,3,3],"right_children":[2,-1,4,6,-1,-1,-1],"split_conditions":[3.5E0,1.2043893E-2,4.1E0,3.7E0,-1.2292428E-2,-1.9213418E-4,-4.410599E-3],"split_indices":[1,0,1,1,0,0,0],"split_type":[0,0,0,0,0,0,0],"sum_hessian":[6.6876184E2,2.524508E2,4.1631104E2,2.2583545E2,1.9047557E2,7.362572E1,1.5220973E2],"tree_param":{"num_deleted":"0","num_feature":"4","num_nodes":"7","size_leaf_vector":"1"}},{"base_weights":[-0E0,4.502258E-1,-1.1782524E-2,1.1962995E-2,3.3052248E-1,3.5953461E-3,1.8158435E-3],"categories":[],"categories_nodes":[],"categories_segments":[],"categories_sizes":[],"default_left":[0,0,0,0,0,0,0],"id":128,"left_children":[1,3,-1,-1,5,-1,-1],"loss_changes":[3.5473755E2,4.179901E1,0E0,0E0,1.4422836E0,0E0,0E0],"parents":[2147483647,0,0,1,1,4,4],"right_children":[2,4,-1,-1,6,-1,-1],"split_conditions":[2.0002E2,5.031E1,-1.1782524E-2,1.1962995E-2,1.7237E2,3.5953461E-3,1.8158435E-3],"split_indices":[0,0,0,0,0,0,0],"split_type":[0,0,0,0,0,0,0],"sum_hessian":[6.651915E2,4.81724E2,1.8346751E2,6.416093E1,4.1756305E2,3.4490067E2,7.26624E1],"tree_param":{"num_deleted":"0","num_feature":"4","num_nodes":"7","size_leaf_vector":"1"}},{"base_weights":[-0E0,1.2009033E-2,-7.28022E-1,-3.0342895E-1,-1.22639295E-2,-1.863174E-4,-4.3663196E-3],"categories":[],"categories_nodes":[],"categories_segments":[],"categories_sizes":[],"default_left":[0,0,0,0,0,0,0],"id":129,"left_children":[1,-1,3,5,-1,-1,-1],"loss_changes":[5.820439E2,0E0,8.644676E1,8.352779E0,0E0,0E0,0E0],"parents":[2147483647,0,0,2,2,3,3],"right_children":[2,-1,4,6,-1,-1,-1],